digraph Tree {
node [shape=box] ;
0 [label="X[0] <= 12.5\ngini = 0.677\nsamples = 554\nvalue = [289, 81, 84, 27, 3, 6, 35, 2, 5, 9, 5, 2, 1\n1, 1, 1, 2]"] ;
1 [label="gini = 0.0\nsamples = 117\nvalue = [117, 0, 0, 0, 0, 0, 0, 0, 0, 0, 0, 0, 0, 0\n0, 0, 0]"] ;
0 -> 1 [labeldistance=2.5, labelangle=45, headlabel="True"] ;
2 [label="X[1] <= -0.5\ngini = 0.763\nsamples = 437\nvalue = [172, 81, 84, 27, 3, 6, 35, 2, 5, 9, 5, 2, 1\n1, 1, 1, 2]"] ;
0 -> 2 [labeldistance=2.5, labelangle=-45, headlabel="False"] ;
3 [label="X[18] <= 2.671\ngini = 0.7\nsamples = 200\nvalue = [100, 25, 24, 5, 1, 1, 27, 2, 4, 5, 1, 1, 1, 0\n1, 1, 1]"] ;
2 -> 3 ;
4 [label="X[19] <= 12.5\ngini = 0.658\nsamples = 143\nvalue = [76, 23, 24, 5, 0, 0, 9, 1, 1, 3, 1, 0, 0, 0\n0, 0, 0]"] ;
3 -> 4 ;
5 [label="X[5] <= 237.5\ngini = 0.606\nsamples = 101\nvalue = [60, 16, 9, 3, 0, 0, 8, 0, 1, 3, 1, 0, 0, 0\n0, 0, 0]"] ;
4 -> 5 ;
6 [label="X[14] <= 8.5\ngini = 0.548\nsamples = 82\nvalue = [53, 13, 6, 2, 0, 0, 3, 0, 1, 3, 1, 0, 0, 0\n0, 0, 0]"] ;
5 -> 6 ;
7 [label="X[19] <= 1.5\ngini = 0.336\nsamples = 36\nvalue = [29, 4, 1, 1, 0, 0, 0, 0, 0, 1, 0, 0, 0, 0\n0, 0, 0]"] ;
6 -> 7 ;
8 [label="gini = 0.0\nsamples = 1\nvalue = [0, 0, 1, 0, 0, 0, 0, 0, 0, 0, 0, 0, 0, 0, 0\n0, 0]"] ;
7 -> 8 ;
9 [label="X[8] <= 352.5\ngini = 0.299\nsamples = 35\nvalue = [29, 4, 0, 1, 0, 0, 0, 0, 0, 1, 0, 0, 0, 0\n0, 0, 0]"] ;
7 -> 9 ;
10 [label="X[24] <= -375.0\ngini = 0.258\nsamples = 34\nvalue = [29, 4, 0, 1, 0, 0, 0, 0, 0, 0, 0, 0, 0, 0\n0, 0, 0]"] ;
9 -> 10 ;
11 [label="gini = 0.0\nsamples = 1\nvalue = [0, 1, 0, 0, 0, 0, 0, 0, 0, 0, 0, 0, 0, 0, 0\n0, 0]"] ;
10 -> 11 ;
12 [label="X[17] <= 1.5\ngini = 0.219\nsamples = 33\nvalue = [29, 3, 0, 1, 0, 0, 0, 0, 0, 0, 0, 0, 0, 0\n0, 0, 0]"] ;
10 -> 12 ;
13 [label="X[6] <= 71.0\ngini = 0.494\nsamples = 9\nvalue = [6, 2, 0, 1, 0, 0, 0, 0, 0, 0, 0, 0, 0, 0, 0\n0, 0]"] ;
12 -> 13 ;
14 [label="X[4] <= 231.0\ngini = 0.375\nsamples = 8\nvalue = [6, 2, 0, 0, 0, 0, 0, 0, 0, 0, 0, 0, 0, 0, 0\n0, 0]"] ;
13 -> 14 ;
15 [label="X[8] <= 41.0\ngini = 0.5\nsamples = 4\nvalue = [2, 2, 0, 0, 0, 0, 0, 0, 0, 0, 0, 0, 0, 0, 0\n0, 0]"] ;
14 -> 15 ;
16 [label="X[2] <= 2.0\ngini = 0.444\nsamples = 3\nvalue = [2, 1, 0, 0, 0, 0, 0, 0, 0, 0, 0, 0, 0, 0, 0\n0, 0]"] ;
15 -> 16 ;
17 [label="gini = 0.0\nsamples = 1\nvalue = [1, 0, 0, 0, 0, 0, 0, 0, 0, 0, 0, 0, 0, 0, 0\n0, 0]"] ;
16 -> 17 ;
18 [label="X[19] <= 5.5\ngini = 0.5\nsamples = 2\nvalue = [1, 1, 0, 0, 0, 0, 0, 0, 0, 0, 0, 0, 0, 0, 0\n0, 0]"] ;
16 -> 18 ;
19 [label="gini = 0.0\nsamples = 1\nvalue = [1, 0, 0, 0, 0, 0, 0, 0, 0, 0, 0, 0, 0, 0, 0\n0, 0]"] ;
18 -> 19 ;
20 [label="gini = 0.0\nsamples = 1\nvalue = [0, 1, 0, 0, 0, 0, 0, 0, 0, 0, 0, 0, 0, 0, 0\n0, 0]"] ;
18 -> 20 ;
21 [label="gini = 0.0\nsamples = 1\nvalue = [0, 1, 0, 0, 0, 0, 0, 0, 0, 0, 0, 0, 0, 0, 0\n0, 0]"] ;
15 -> 21 ;
22 [label="gini = 0.0\nsamples = 4\nvalue = [4, 0, 0, 0, 0, 0, 0, 0, 0, 0, 0, 0, 0, 0, 0\n0, 0]"] ;
14 -> 22 ;
23 [label="gini = 0.0\nsamples = 1\nvalue = [0, 0, 0, 1, 0, 0, 0, 0, 0, 0, 0, 0, 0, 0, 0\n0, 0]"] ;
13 -> 23 ;
24 [label="X[22] <= -340.0\ngini = 0.08\nsamples = 24\nvalue = [23, 1, 0, 0, 0, 0, 0, 0, 0, 0, 0, 0, 0, 0\n0, 0, 0]"] ;
12 -> 24 ;
25 [label="X[7] <= 2.5\ngini = 0.32\nsamples = 5\nvalue = [4, 1, 0, 0, 0, 0, 0, 0, 0, 0, 0, 0, 0, 0, 0\n0, 0]"] ;
24 -> 25 ;
26 [label="gini = 0.0\nsamples = 1\nvalue = [0, 1, 0, 0, 0, 0, 0, 0, 0, 0, 0, 0, 0, 0, 0\n0, 0]"] ;
25 -> 26 ;
27 [label="gini = 0.0\nsamples = 4\nvalue = [4, 0, 0, 0, 0, 0, 0, 0, 0, 0, 0, 0, 0, 0, 0\n0, 0]"] ;
25 -> 27 ;
28 [label="gini = 0.0\nsamples = 19\nvalue = [19, 0, 0, 0, 0, 0, 0, 0, 0, 0, 0, 0, 0, 0\n0, 0, 0]"] ;
24 -> 28 ;
29 [label="gini = 0.0\nsamples = 1\nvalue = [0, 0, 0, 0, 0, 0, 0, 0, 0, 1, 0, 0, 0, 0, 0\n0, 0]"] ;
9 -> 29 ;
30 [label="X[11] <= 35.0\ngini = 0.67\nsamples = 46\nvalue = [24, 9, 5, 1, 0, 0, 3, 0, 1, 2, 1, 0, 0, 0\n0, 0, 0]"] ;
6 -> 30 ;
31 [label="X[18] <= 2.041\ngini = 0.427\nsamples = 23\nvalue = [17, 3, 2, 0, 0, 0, 1, 0, 0, 0, 0, 0, 0, 0\n0, 0, 0]"] ;
30 -> 31 ;
32 [label="X[24] <= 85.0\ngini = 0.349\nsamples = 19\nvalue = [15, 3, 0, 0, 0, 0, 1, 0, 0, 0, 0, 0, 0, 0\n0, 0, 0]"] ;
31 -> 32 ;
33 [label="X[17] <= 17.5\ngini = 0.219\nsamples = 16\nvalue = [14, 2, 0, 0, 0, 0, 0, 0, 0, 0, 0, 0, 0, 0\n0, 0, 0]"] ;
32 -> 33 ;
34 [label="gini = 0.0\nsamples = 11\nvalue = [11, 0, 0, 0, 0, 0, 0, 0, 0, 0, 0, 0, 0, 0\n0, 0, 0]"] ;
33 -> 34 ;
35 [label="X[19] <= 8.5\ngini = 0.48\nsamples = 5\nvalue = [3, 2, 0, 0, 0, 0, 0, 0, 0, 0, 0, 0, 0, 0, 0\n0, 0]"] ;
33 -> 35 ;
36 [label="gini = 0.0\nsamples = 2\nvalue = [0, 2, 0, 0, 0, 0, 0, 0, 0, 0, 0, 0, 0, 0, 0\n0, 0]"] ;
35 -> 36 ;
37 [label="gini = 0.0\nsamples = 3\nvalue = [3, 0, 0, 0, 0, 0, 0, 0, 0, 0, 0, 0, 0, 0, 0\n0, 0]"] ;
35 -> 37 ;
38 [label="X[19] <= 3.5\ngini = 0.667\nsamples = 3\nvalue = [1, 1, 0, 0, 0, 0, 1, 0, 0, 0, 0, 0, 0, 0, 0\n0, 0]"] ;
32 -> 38 ;
39 [label="gini = 0.0\nsamples = 1\nvalue = [0, 0, 0, 0, 0, 0, 1, 0, 0, 0, 0, 0, 0, 0, 0\n0, 0]"] ;
38 -> 39 ;
40 [label="X[6] <= 22.5\ngini = 0.5\nsamples = 2\nvalue = [1, 1, 0, 0, 0, 0, 0, 0, 0, 0, 0, 0, 0, 0, 0\n0, 0]"] ;
38 -> 40 ;
41 [label="gini = 0.0\nsamples = 1\nvalue = [1, 0, 0, 0, 0, 0, 0, 0, 0, 0, 0, 0, 0, 0, 0\n0, 0]"] ;
40 -> 41 ;
42 [label="gini = 0.0\nsamples = 1\nvalue = [0, 1, 0, 0, 0, 0, 0, 0, 0, 0, 0, 0, 0, 0, 0\n0, 0]"] ;
40 -> 42 ;
43 [label="X[20] <= 0.5\ngini = 0.5\nsamples = 4\nvalue = [2, 0, 2, 0, 0, 0, 0, 0, 0, 0, 0, 0, 0, 0, 0\n0, 0]"] ;
31 -> 43 ;
44 [label="gini = 0.0\nsamples = 2\nvalue = [2, 0, 0, 0, 0, 0, 0, 0, 0, 0, 0, 0, 0, 0, 0\n0, 0]"] ;
43 -> 44 ;
45 [label="gini = 0.0\nsamples = 2\nvalue = [0, 0, 2, 0, 0, 0, 0, 0, 0, 0, 0, 0, 0, 0, 0\n0, 0]"] ;
43 -> 45 ;
46 [label="X[5] <= 40.0\ngini = 0.802\nsamples = 23\nvalue = [7, 6, 3, 1, 0, 0, 2, 0, 1, 2, 1, 0, 0, 0, 0\n0, 0]"] ;
30 -> 46 ;
47 [label="X[23] <= 95.0\ngini = 0.375\nsamples = 4\nvalue = [0, 1, 3, 0, 0, 0, 0, 0, 0, 0, 0, 0, 0, 0, 0\n0, 0]"] ;
46 -> 47 ;
48 [label="gini = 0.0\nsamples = 3\nvalue = [0, 0, 3, 0, 0, 0, 0, 0, 0, 0, 0, 0, 0, 0, 0\n0, 0]"] ;
47 -> 48 ;
49 [label="gini = 0.0\nsamples = 1\nvalue = [0, 1, 0, 0, 0, 0, 0, 0, 0, 0, 0, 0, 0, 0, 0\n0, 0]"] ;
47 -> 49 ;
50 [label="X[11] <= 114.0\ngini = 0.765\nsamples = 19\nvalue = [7, 5, 0, 1, 0, 0, 2, 0, 1, 2, 1, 0, 0, 0, 0\n0, 0]"] ;
46 -> 50 ;
51 [label="X[24] <= 15.0\ngini = 0.777\nsamples = 11\nvalue = [1, 4, 0, 1, 0, 0, 2, 0, 1, 2, 0, 0, 0, 0, 0\n0, 0]"] ;
50 -> 51 ;
52 [label="X[7] <= 39.0\ngini = 0.32\nsamples = 5\nvalue = [0, 4, 0, 1, 0, 0, 0, 0, 0, 0, 0, 0, 0, 0, 0\n0, 0]"] ;
51 -> 52 ;
53 [label="gini = 0.0\nsamples = 4\nvalue = [0, 4, 0, 0, 0, 0, 0, 0, 0, 0, 0, 0, 0, 0, 0\n0, 0]"] ;
52 -> 53 ;
54 [label="gini = 0.0\nsamples = 1\nvalue = [0, 0, 0, 1, 0, 0, 0, 0, 0, 0, 0, 0, 0, 0, 0\n0, 0]"] ;
52 -> 54 ;
55 [label="X[6] <= 43.5\ngini = 0.722\nsamples = 6\nvalue = [1, 0, 0, 0, 0, 0, 2, 0, 1, 2, 0, 0, 0, 0, 0\n0, 0]"] ;
51 -> 55 ;
56 [label="gini = 0.0\nsamples = 2\nvalue = [0, 0, 0, 0, 0, 0, 0, 0, 0, 2, 0, 0, 0, 0, 0\n0, 0]"] ;
55 -> 56 ;
57 [label="X[17] <= 8.5\ngini = 0.625\nsamples = 4\nvalue = [1, 0, 0, 0, 0, 0, 2, 0, 1, 0, 0, 0, 0, 0, 0\n0, 0]"] ;
55 -> 57 ;
58 [label="gini = 0.0\nsamples = 2\nvalue = [0, 0, 0, 0, 0, 0, 2, 0, 0, 0, 0, 0, 0, 0, 0\n0, 0]"] ;
57 -> 58 ;
59 [label="X[17] <= 11.0\ngini = 0.5\nsamples = 2\nvalue = [1, 0, 0, 0, 0, 0, 0, 0, 1, 0, 0, 0, 0, 0, 0\n0, 0]"] ;
57 -> 59 ;
60 [label="gini = 0.0\nsamples = 1\nvalue = [1, 0, 0, 0, 0, 0, 0, 0, 0, 0, 0, 0, 0, 0, 0\n0, 0]"] ;
59 -> 60 ;
61 [label="gini = 0.0\nsamples = 1\nvalue = [0, 0, 0, 0, 0, 0, 0, 0, 1, 0, 0, 0, 0, 0, 0\n0, 0]"] ;
59 -> 61 ;
62 [label="X[24] <= 120.0\ngini = 0.406\nsamples = 8\nvalue = [6, 1, 0, 0, 0, 0, 0, 0, 0, 0, 1, 0, 0, 0, 0\n0, 0]"] ;
50 -> 62 ;
63 [label="X[4] <= 330.0\ngini = 0.245\nsamples = 7\nvalue = [6, 1, 0, 0, 0, 0, 0, 0, 0, 0, 0, 0, 0, 0, 0\n0, 0]"] ;
62 -> 63 ;
64 [label="gini = 0.0\nsamples = 6\nvalue = [6, 0, 0, 0, 0, 0, 0, 0, 0, 0, 0, 0, 0, 0, 0\n0, 0]"] ;
63 -> 64 ;
65 [label="gini = 0.0\nsamples = 1\nvalue = [0, 1, 0, 0, 0, 0, 0, 0, 0, 0, 0, 0, 0, 0, 0\n0, 0]"] ;
63 -> 65 ;
66 [label="gini = 0.0\nsamples = 1\nvalue = [0, 0, 0, 0, 0, 0, 0, 0, 0, 0, 1, 0, 0, 0, 0\n0, 0]"] ;
62 -> 66 ;
67 [label="X[14] <= 2.5\ngini = 0.742\nsamples = 19\nvalue = [7, 3, 3, 1, 0, 0, 5, 0, 0, 0, 0, 0, 0, 0, 0\n0, 0]"] ;
5 -> 67 ;
68 [label="gini = 0.0\nsamples = 4\nvalue = [0, 0, 0, 0, 0, 0, 4, 0, 0, 0, 0, 0, 0, 0, 0\n0, 0]"] ;
67 -> 68 ;
69 [label="X[8] <= 137.5\ngini = 0.693\nsamples = 15\nvalue = [7, 3, 3, 1, 0, 0, 1, 0, 0, 0, 0, 0, 0, 0, 0\n0, 0]"] ;
67 -> 69 ;
70 [label="X[3] <= 3.5\ngini = 0.611\nsamples = 6\nvalue = [0, 3, 2, 0, 0, 0, 1, 0, 0, 0, 0, 0, 0, 0, 0\n0, 0]"] ;
69 -> 70 ;
71 [label="gini = 0.0\nsamples = 3\nvalue = [0, 3, 0, 0, 0, 0, 0, 0, 0, 0, 0, 0, 0, 0, 0\n0, 0]"] ;
70 -> 71 ;
72 [label="X[5] <= 304.5\ngini = 0.444\nsamples = 3\nvalue = [0, 0, 2, 0, 0, 0, 1, 0, 0, 0, 0, 0, 0, 0, 0\n0, 0]"] ;
70 -> 72 ;
73 [label="gini = 0.0\nsamples = 2\nvalue = [0, 0, 2, 0, 0, 0, 0, 0, 0, 0, 0, 0, 0, 0, 0\n0, 0]"] ;
72 -> 73 ;
74 [label="gini = 0.0\nsamples = 1\nvalue = [0, 0, 0, 0, 0, 0, 1, 0, 0, 0, 0, 0, 0, 0, 0\n0, 0]"] ;
72 -> 74 ;
75 [label="X[7] <= 40.5\ngini = 0.37\nsamples = 9\nvalue = [7, 0, 1, 1, 0, 0, 0, 0, 0, 0, 0, 0, 0, 0, 0\n0, 0]"] ;
69 -> 75 ;
76 [label="gini = 0.0\nsamples = 7\nvalue = [7, 0, 0, 0, 0, 0, 0, 0, 0, 0, 0, 0, 0, 0, 0\n0, 0]"] ;
75 -> 76 ;
77 [label="X[20] <= 0.5\ngini = 0.5\nsamples = 2\nvalue = [0, 0, 1, 1, 0, 0, 0, 0, 0, 0, 0, 0, 0, 0, 0\n0, 0]"] ;
75 -> 77 ;
78 [label="gini = 0.0\nsamples = 1\nvalue = [0, 0, 1, 0, 0, 0, 0, 0, 0, 0, 0, 0, 0, 0, 0\n0, 0]"] ;
77 -> 78 ;
79 [label="gini = 0.0\nsamples = 1\nvalue = [0, 0, 0, 1, 0, 0, 0, 0, 0, 0, 0, 0, 0, 0, 0\n0, 0]"] ;
77 -> 79 ;
80 [label="X[17] <= 16.0\ngini = 0.696\nsamples = 42\nvalue = [16, 7, 15, 2, 0, 0, 1, 1, 0, 0, 0, 0, 0, 0\n0, 0, 0]"] ;
4 -> 80 ;
81 [label="X[11] <= 193.5\ngini = 0.652\nsamples = 38\nvalue = [16, 4, 15, 2, 0, 0, 1, 0, 0, 0, 0, 0, 0, 0\n0, 0, 0]"] ;
80 -> 81 ;
82 [label="X[7] <= 30.5\ngini = 0.606\nsamples = 31\nvalue = [12, 3, 15, 0, 0, 0, 1, 0, 0, 0, 0, 0, 0, 0\n0, 0, 0]"] ;
81 -> 82 ;
83 [label="X[4] <= 178.0\ngini = 0.601\nsamples = 24\nvalue = [12, 2, 9, 0, 0, 0, 1, 0, 0, 0, 0, 0, 0, 0\n0, 0, 0]"] ;
82 -> 83 ;
84 [label="X[8] <= 85.0\ngini = 0.623\nsamples = 18\nvalue = [6, 2, 9, 0, 0, 0, 1, 0, 0, 0, 0, 0, 0, 0, 0\n0, 0]"] ;
83 -> 84 ;
85 [label="X[22] <= 275.0\ngini = 0.663\nsamples = 14\nvalue = [6, 2, 5, 0, 0, 0, 1, 0, 0, 0, 0, 0, 0, 0, 0\n0, 0]"] ;
84 -> 85 ;
86 [label="X[23] <= 25.0\ngini = 0.58\nsamples = 10\nvalue = [6, 1, 2, 0, 0, 0, 1, 0, 0, 0, 0, 0, 0, 0, 0\n0, 0]"] ;
85 -> 86 ;
87 [label="X[2] <= 2.0\ngini = 0.722\nsamples = 6\nvalue = [2, 1, 2, 0, 0, 0, 1, 0, 0, 0, 0, 0, 0, 0, 0\n0, 0]"] ;
86 -> 87 ;
88 [label="gini = 0.0\nsamples = 2\nvalue = [2, 0, 0, 0, 0, 0, 0, 0, 0, 0, 0, 0, 0, 0, 0\n0, 0]"] ;
87 -> 88 ;
89 [label="X[22] <= 15.0\ngini = 0.625\nsamples = 4\nvalue = [0, 1, 2, 0, 0, 0, 1, 0, 0, 0, 0, 0, 0, 0, 0\n0, 0]"] ;
87 -> 89 ;
90 [label="X[8] <= 27.0\ngini = 0.444\nsamples = 3\nvalue = [0, 0, 2, 0, 0, 0, 1, 0, 0, 0, 0, 0, 0, 0, 0\n0, 0]"] ;
89 -> 90 ;
91 [label="gini = 0.0\nsamples = 2\nvalue = [0, 0, 2, 0, 0, 0, 0, 0, 0, 0, 0, 0, 0, 0, 0\n0, 0]"] ;
90 -> 91 ;
92 [label="gini = 0.0\nsamples = 1\nvalue = [0, 0, 0, 0, 0, 0, 1, 0, 0, 0, 0, 0, 0, 0, 0\n0, 0]"] ;
90 -> 92 ;
93 [label="gini = 0.0\nsamples = 1\nvalue = [0, 1, 0, 0, 0, 0, 0, 0, 0, 0, 0, 0, 0, 0, 0\n0, 0]"] ;
89 -> 93 ;
94 [label="gini = 0.0\nsamples = 4\nvalue = [4, 0, 0, 0, 0, 0, 0, 0, 0, 0, 0, 0, 0, 0, 0\n0, 0]"] ;
86 -> 94 ;
95 [label="X[8] <= 56.5\ngini = 0.375\nsamples = 4\nvalue = [0, 1, 3, 0, 0, 0, 0, 0, 0, 0, 0, 0, 0, 0, 0\n0, 0]"] ;
85 -> 95 ;
96 [label="gini = 0.0\nsamples = 3\nvalue = [0, 0, 3, 0, 0, 0, 0, 0, 0, 0, 0, 0, 0, 0, 0\n0, 0]"] ;
95 -> 96 ;
97 [label="gini = 0.0\nsamples = 1\nvalue = [0, 1, 0, 0, 0, 0, 0, 0, 0, 0, 0, 0, 0, 0, 0\n0, 0]"] ;
95 -> 97 ;
98 [label="gini = 0.0\nsamples = 4\nvalue = [0, 0, 4, 0, 0, 0, 0, 0, 0, 0, 0, 0, 0, 0, 0\n0, 0]"] ;
84 -> 98 ;
99 [label="gini = 0.0\nsamples = 6\nvalue = [6, 0, 0, 0, 0, 0, 0, 0, 0, 0, 0, 0, 0, 0, 0\n0, 0]"] ;
83 -> 99 ;
100 [label="X[10] <= 67.5\ngini = 0.245\nsamples = 7\nvalue = [0, 1, 6, 0, 0, 0, 0, 0, 0, 0, 0, 0, 0, 0, 0\n0, 0]"] ;
82 -> 100 ;
101 [label="gini = 0.0\nsamples = 6\nvalue = [0, 0, 6, 0, 0, 0, 0, 0, 0, 0, 0, 0, 0, 0, 0\n0, 0]"] ;
100 -> 101 ;
102 [label="gini = 0.0\nsamples = 1\nvalue = [0, 1, 0, 0, 0, 0, 0, 0, 0, 0, 0, 0, 0, 0, 0\n0, 0]"] ;
100 -> 102 ;
103 [label="X[9] <= 1615.0\ngini = 0.571\nsamples = 7\nvalue = [4, 1, 0, 2, 0, 0, 0, 0, 0, 0, 0, 0, 0, 0, 0\n0, 0]"] ;
81 -> 103 ;
104 [label="X[4] <= 157.0\ngini = 0.444\nsamples = 3\nvalue = [0, 1, 0, 2, 0, 0, 0, 0, 0, 0, 0, 0, 0, 0, 0\n0, 0]"] ;
103 -> 104 ;
105 [label="gini = 0.0\nsamples = 1\nvalue = [0, 1, 0, 0, 0, 0, 0, 0, 0, 0, 0, 0, 0, 0, 0\n0, 0]"] ;
104 -> 105 ;
106 [label="gini = 0.0\nsamples = 2\nvalue = [0, 0, 0, 2, 0, 0, 0, 0, 0, 0, 0, 0, 0, 0, 0\n0, 0]"] ;
104 -> 106 ;
107 [label="gini = 0.0\nsamples = 4\nvalue = [4, 0, 0, 0, 0, 0, 0, 0, 0, 0, 0, 0, 0, 0, 0\n0, 0]"] ;
103 -> 107 ;
108 [label="X[11] <= 239.0\ngini = 0.375\nsamples = 4\nvalue = [0, 3, 0, 0, 0, 0, 0, 1, 0, 0, 0, 0, 0, 0, 0\n0, 0]"] ;
80 -> 108 ;
109 [label="gini = 0.0\nsamples = 3\nvalue = [0, 3, 0, 0, 0, 0, 0, 0, 0, 0, 0, 0, 0, 0, 0\n0, 0]"] ;
108 -> 109 ;
110 [label="gini = 0.0\nsamples = 1\nvalue = [0, 0, 0, 0, 0, 0, 0, 1, 0, 0, 0, 0, 0, 0, 0\n0, 0]"] ;
108 -> 110 ;
111 [label="X[4] <= 680.0\ngini = 0.715\nsamples = 57\nvalue = [24, 2, 0, 0, 1, 1, 18, 1, 3, 2, 0, 1, 1, 0\n1, 1, 1]"] ;
3 -> 111 ;
112 [label="X[22] <= 5.0\ngini = 0.737\nsamples = 52\nvalue = [19, 2, 0, 0, 1, 1, 18, 1, 3, 2, 0, 1, 1, 0\n1, 1, 1]"] ;
111 -> 112 ;
113 [label="X[11] <= 218.0\ngini = 0.676\nsamples = 15\nvalue = [8, 0, 0, 0, 1, 0, 2, 1, 1, 1, 0, 0, 0, 0, 0\n1, 0]"] ;
112 -> 113 ;
114 [label="X[19] <= 9.5\ngini = 0.528\nsamples = 12\nvalue = [8, 0, 0, 0, 1, 0, 0, 1, 1, 1, 0, 0, 0, 0, 0\n0, 0]"] ;
113 -> 114 ;
115 [label="gini = 0.0\nsamples = 5\nvalue = [5, 0, 0, 0, 0, 0, 0, 0, 0, 0, 0, 0, 0, 0, 0\n0, 0]"] ;
114 -> 115 ;
116 [label="X[21] <= -0.5\ngini = 0.735\nsamples = 7\nvalue = [3, 0, 0, 0, 1, 0, 0, 1, 1, 1, 0, 0, 0, 0, 0\n0, 0]"] ;
114 -> 116 ;
117 [label="X[12] <= 26.0\ngini = 0.667\nsamples = 6\nvalue = [3, 0, 0, 0, 0, 0, 0, 1, 1, 1, 0, 0, 0, 0, 0\n0, 0]"] ;
116 -> 117 ;
118 [label="X[6] <= 22.0\ngini = 0.75\nsamples = 4\nvalue = [1, 0, 0, 0, 0, 0, 0, 1, 1, 1, 0, 0, 0, 0, 0\n0, 0]"] ;
117 -> 118 ;
119 [label="X[21] <= -1.5\ngini = 0.667\nsamples = 3\nvalue = [1, 0, 0, 0, 0, 0, 0, 0, 1, 1, 0, 0, 0, 0, 0\n0, 0]"] ;
118 -> 119 ;
120 [label="X[2] <= 2.0\ngini = 0.5\nsamples = 2\nvalue = [1, 0, 0, 0, 0, 0, 0, 0, 1, 0, 0, 0, 0, 0, 0\n0, 0]"] ;
119 -> 120 ;
121 [label="gini = 0.0\nsamples = 1\nvalue = [1, 0, 0, 0, 0, 0, 0, 0, 0, 0, 0, 0, 0, 0, 0\n0, 0]"] ;
120 -> 121 ;
122 [label="gini = 0.0\nsamples = 1\nvalue = [0, 0, 0, 0, 0, 0, 0, 0, 1, 0, 0, 0, 0, 0, 0\n0, 0]"] ;
120 -> 122 ;
123 [label="gini = 0.0\nsamples = 1\nvalue = [0, 0, 0, 0, 0, 0, 0, 0, 0, 1, 0, 0, 0, 0, 0\n0, 0]"] ;
119 -> 123 ;
124 [label="gini = 0.0\nsamples = 1\nvalue = [0, 0, 0, 0, 0, 0, 0, 1, 0, 0, 0, 0, 0, 0, 0\n0, 0]"] ;
118 -> 124 ;
125 [label="gini = 0.0\nsamples = 2\nvalue = [2, 0, 0, 0, 0, 0, 0, 0, 0, 0, 0, 0, 0, 0, 0\n0, 0]"] ;
117 -> 125 ;
126 [label="gini = 0.0\nsamples = 1\nvalue = [0, 0, 0, 0, 1, 0, 0, 0, 0, 0, 0, 0, 0, 0, 0\n0, 0]"] ;
116 -> 126 ;
127 [label="X[15] <= 3.5\ngini = 0.444\nsamples = 3\nvalue = [0, 0, 0, 0, 0, 0, 2, 0, 0, 0, 0, 0, 0, 0, 0\n1, 0]"] ;
113 -> 127 ;
128 [label="gini = 0.0\nsamples = 2\nvalue = [0, 0, 0, 0, 0, 0, 2, 0, 0, 0, 0, 0, 0, 0, 0\n0, 0]"] ;
127 -> 128 ;
129 [label="gini = 0.0\nsamples = 1\nvalue = [0, 0, 0, 0, 0, 0, 0, 0, 0, 0, 0, 0, 0, 0, 0\n1, 0]"] ;
127 -> 129 ;
130 [label="X[23] <= 305.0\ngini = 0.714\nsamples = 37\nvalue = [11, 2, 0, 0, 0, 1, 16, 0, 2, 1, 0, 1, 1, 0\n1, 0, 1]"] ;
112 -> 130 ;
131 [label="X[5] <= 316.0\ngini = 0.664\nsamples = 32\nvalue = [9, 1, 0, 0, 0, 1, 16, 0, 0, 1, 0, 1, 1, 0\n1, 0, 1]"] ;
130 -> 131 ;
132 [label="X[7] <= 33.5\ngini = 0.62\nsamples = 30\nvalue = [9, 1, 0, 0, 0, 1, 16, 0, 0, 1, 0, 0, 1, 0\n1, 0, 0]"] ;
131 -> 132 ;
133 [label="X[7] <= 16.0\ngini = 0.557\nsamples = 27\nvalue = [8, 1, 0, 0, 0, 1, 16, 0, 0, 1, 0, 0, 0, 0\n0, 0, 0]"] ;
132 -> 133 ;
134 [label="X[8] <= 61.0\ngini = 0.621\nsamples = 21\nvalue = [8, 1, 0, 0, 0, 1, 10, 0, 0, 1, 0, 0, 0, 0\n0, 0, 0]"] ;
133 -> 134 ;
135 [label="X[19] <= 7.5\ngini = 0.561\nsamples = 17\nvalue = [5, 1, 0, 0, 0, 0, 10, 0, 0, 1, 0, 0, 0, 0\n0, 0, 0]"] ;
134 -> 135 ;
136 [label="X[18] <= 3.544\ngini = 0.571\nsamples = 7\nvalue = [4, 1, 0, 0, 0, 0, 2, 0, 0, 0, 0, 0, 0, 0, 0\n0, 0]"] ;
135 -> 136 ;
137 [label="gini = 0.0\nsamples = 3\nvalue = [3, 0, 0, 0, 0, 0, 0, 0, 0, 0, 0, 0, 0, 0, 0\n0, 0]"] ;
136 -> 137 ;
138 [label="X[19] <= 3.5\ngini = 0.625\nsamples = 4\nvalue = [1, 1, 0, 0, 0, 0, 2, 0, 0, 0, 0, 0, 0, 0, 0\n0, 0]"] ;
136 -> 138 ;
139 [label="gini = 0.0\nsamples = 2\nvalue = [0, 0, 0, 0, 0, 0, 2, 0, 0, 0, 0, 0, 0, 0, 0\n0, 0]"] ;
138 -> 139 ;
140 [label="X[20] <= 0.5\ngini = 0.5\nsamples = 2\nvalue = [1, 1, 0, 0, 0, 0, 0, 0, 0, 0, 0, 0, 0, 0, 0\n0, 0]"] ;
138 -> 140 ;
141 [label="gini = 0.0\nsamples = 1\nvalue = [1, 0, 0, 0, 0, 0, 0, 0, 0, 0, 0, 0, 0, 0, 0\n0, 0]"] ;
140 -> 141 ;
142 [label="gini = 0.0\nsamples = 1\nvalue = [0, 1, 0, 0, 0, 0, 0, 0, 0, 0, 0, 0, 0, 0, 0\n0, 0]"] ;
140 -> 142 ;
143 [label="X[12] <= 43.5\ngini = 0.34\nsamples = 10\nvalue = [1, 0, 0, 0, 0, 0, 8, 0, 0, 1, 0, 0, 0, 0, 0\n0, 0]"] ;
135 -> 143 ;
144 [label="X[19] <= 18.5\ngini = 0.198\nsamples = 9\nvalue = [0, 0, 0, 0, 0, 0, 8, 0, 0, 1, 0, 0, 0, 0, 0\n0, 0]"] ;
143 -> 144 ;
145 [label="gini = 0.0\nsamples = 7\nvalue = [0, 0, 0, 0, 0, 0, 7, 0, 0, 0, 0, 0, 0, 0, 0\n0, 0]"] ;
144 -> 145 ;
146 [label="gini = 0.5\nsamples = 2\nvalue = [0, 0, 0, 0, 0, 0, 1, 0, 0, 1, 0, 0, 0, 0, 0\n0, 0]"] ;
144 -> 146 ;
147 [label="gini = 0.0\nsamples = 1\nvalue = [1, 0, 0, 0, 0, 0, 0, 0, 0, 0, 0, 0, 0, 0, 0\n0, 0]"] ;
143 -> 147 ;
148 [label="X[6] <= 40.5\ngini = 0.375\nsamples = 4\nvalue = [3, 0, 0, 0, 0, 1, 0, 0, 0, 0, 0, 0, 0, 0, 0\n0, 0]"] ;
134 -> 148 ;
149 [label="gini = 0.0\nsamples = 1\nvalue = [0, 0, 0, 0, 0, 1, 0, 0, 0, 0, 0, 0, 0, 0, 0\n0, 0]"] ;
148 -> 149 ;
150 [label="gini = 0.0\nsamples = 3\nvalue = [3, 0, 0, 0, 0, 0, 0, 0, 0, 0, 0, 0, 0, 0, 0\n0, 0]"] ;
148 -> 150 ;
151 [label="gini = 0.0\nsamples = 6\nvalue = [0, 0, 0, 0, 0, 0, 6, 0, 0, 0, 0, 0, 0, 0, 0\n0, 0]"] ;
133 -> 151 ;
152 [label="X[21] <= 1.5\ngini = 0.667\nsamples = 3\nvalue = [1, 0, 0, 0, 0, 0, 0, 0, 0, 0, 0, 0, 1, 0, 1\n0, 0]"] ;
132 -> 152 ;
153 [label="X[4] <= 498.0\ngini = 0.5\nsamples = 2\nvalue = [1, 0, 0, 0, 0, 0, 0, 0, 0, 0, 0, 0, 1, 0, 0\n0, 0]"] ;
152 -> 153 ;
154 [label="gini = 0.0\nsamples = 1\nvalue = [0, 0, 0, 0, 0, 0, 0, 0, 0, 0, 0, 0, 1, 0, 0\n0, 0]"] ;
153 -> 154 ;
155 [label="gini = 0.0\nsamples = 1\nvalue = [1, 0, 0, 0, 0, 0, 0, 0, 0, 0, 0, 0, 0, 0, 0\n0, 0]"] ;
153 -> 155 ;
156 [label="gini = 0.0\nsamples = 1\nvalue = [0, 0, 0, 0, 0, 0, 0, 0, 0, 0, 0, 0, 0, 0, 1\n0, 0]"] ;
152 -> 156 ;
157 [label="X[16] <= 1295.0\ngini = 0.5\nsamples = 2\nvalue = [0, 0, 0, 0, 0, 0, 0, 0, 0, 0, 0, 1, 0, 0, 0\n0, 1]"] ;
131 -> 157 ;
158 [label="gini = 0.0\nsamples = 1\nvalue = [0, 0, 0, 0, 0, 0, 0, 0, 0, 0, 0, 1, 0, 0, 0\n0, 0]"] ;
157 -> 158 ;
159 [label="gini = 0.0\nsamples = 1\nvalue = [0, 0, 0, 0, 0, 0, 0, 0, 0, 0, 0, 0, 0, 0, 0\n0, 1]"] ;
157 -> 159 ;
160 [label="X[4] <= 145.0\ngini = 0.64\nsamples = 5\nvalue = [2, 1, 0, 0, 0, 0, 0, 0, 2, 0, 0, 0, 0, 0, 0\n0, 0]"] ;
130 -> 160 ;
161 [label="X[24] <= 355.0\ngini = 0.444\nsamples = 3\nvalue = [2, 1, 0, 0, 0, 0, 0, 0, 0, 0, 0, 0, 0, 0, 0\n0, 0]"] ;
160 -> 161 ;
162 [label="gini = 0.0\nsamples = 2\nvalue = [2, 0, 0, 0, 0, 0, 0, 0, 0, 0, 0, 0, 0, 0, 0\n0, 0]"] ;
161 -> 162 ;
163 [label="gini = 0.0\nsamples = 1\nvalue = [0, 1, 0, 0, 0, 0, 0, 0, 0, 0, 0, 0, 0, 0, 0\n0, 0]"] ;
161 -> 163 ;
164 [label="gini = 0.0\nsamples = 2\nvalue = [0, 0, 0, 0, 0, 0, 0, 0, 2, 0, 0, 0, 0, 0, 0\n0, 0]"] ;
160 -> 164 ;
165 [label="gini = 0.0\nsamples = 5\nvalue = [5, 0, 0, 0, 0, 0, 0, 0, 0, 0, 0, 0, 0, 0, 0\n0, 0]"] ;
111 -> 165 ;
166 [label="X[18] <= 2.671\ngini = 0.777\nsamples = 237\nvalue = [72, 56, 60, 22, 2, 5, 8, 0, 1, 4, 4, 1, 0, 1\n0, 0, 1]"] ;
2 -> 166 ;
167 [label="X[10] <= 20.0\ngini = 0.732\nsamples = 172\nvalue = [56, 45, 52, 6, 1, 3, 4, 0, 1, 1, 3, 0, 0, 0\n0, 0, 0]"] ;
166 -> 167 ;
168 [label="X[16] <= 1015.0\ngini = 0.688\nsamples = 52\nvalue = [25, 8, 12, 0, 1, 1, 2, 0, 1, 0, 2, 0, 0, 0\n0, 0, 0]"] ;
167 -> 168 ;
169 [label="X[17] <= 10.0\ngini = 0.5\nsamples = 8\nvalue = [4, 4, 0, 0, 0, 0, 0, 0, 0, 0, 0, 0, 0, 0, 0\n0, 0]"] ;
168 -> 169 ;
170 [label="X[2] <= 1.5\ngini = 0.32\nsamples = 5\nvalue = [4, 1, 0, 0, 0, 0, 0, 0, 0, 0, 0, 0, 0, 0, 0\n0, 0]"] ;
169 -> 170 ;
171 [label="gini = 0.0\nsamples = 1\nvalue = [0, 1, 0, 0, 0, 0, 0, 0, 0, 0, 0, 0, 0, 0, 0\n0, 0]"] ;
170 -> 171 ;
172 [label="gini = 0.0\nsamples = 4\nvalue = [4, 0, 0, 0, 0, 0, 0, 0, 0, 0, 0, 0, 0, 0, 0\n0, 0]"] ;
170 -> 172 ;
173 [label="gini = 0.0\nsamples = 3\nvalue = [0, 3, 0, 0, 0, 0, 0, 0, 0, 0, 0, 0, 0, 0, 0\n0, 0]"] ;
169 -> 173 ;
174 [label="X[14] <= 7.5\ngini = 0.684\nsamples = 44\nvalue = [21, 4, 12, 0, 1, 1, 2, 0, 1, 0, 2, 0, 0, 0\n0, 0, 0]"] ;
168 -> 174 ;
175 [label="X[24] <= 30.0\ngini = 0.54\nsamples = 10\nvalue = [3, 1, 6, 0, 0, 0, 0, 0, 0, 0, 0, 0, 0, 0, 0\n0, 0]"] ;
174 -> 175 ;
176 [label="X[19] <= 12.5\ngini = 0.245\nsamples = 7\nvalue = [1, 0, 6, 0, 0, 0, 0, 0, 0, 0, 0, 0, 0, 0, 0\n0, 0]"] ;
175 -> 176 ;
177 [label="gini = 0.0\nsamples = 6\nvalue = [0, 0, 6, 0, 0, 0, 0, 0, 0, 0, 0, 0, 0, 0, 0\n0, 0]"] ;
176 -> 177 ;
178 [label="gini = 0.0\nsamples = 1\nvalue = [1, 0, 0, 0, 0, 0, 0, 0, 0, 0, 0, 0, 0, 0, 0\n0, 0]"] ;
176 -> 178 ;
179 [label="X[19] <= 12.0\ngini = 0.444\nsamples = 3\nvalue = [2, 1, 0, 0, 0, 0, 0, 0, 0, 0, 0, 0, 0, 0, 0\n0, 0]"] ;
175 -> 179 ;
180 [label="gini = 0.0\nsamples = 2\nvalue = [2, 0, 0, 0, 0, 0, 0, 0, 0, 0, 0, 0, 0, 0, 0\n0, 0]"] ;
179 -> 180 ;
181 [label="gini = 0.0\nsamples = 1\nvalue = [0, 1, 0, 0, 0, 0, 0, 0, 0, 0, 0, 0, 0, 0, 0\n0, 0]"] ;
179 -> 181 ;
182 [label="X[24] <= 90.0\ngini = 0.671\nsamples = 34\nvalue = [18, 3, 6, 0, 1, 1, 2, 0, 1, 0, 2, 0, 0, 0\n0, 0, 0]"] ;
174 -> 182 ;
183 [label="X[22] <= 35.0\ngini = 0.652\nsamples = 33\nvalue = [18, 3, 6, 0, 0, 1, 2, 0, 1, 0, 2, 0, 0, 0\n0, 0, 0]"] ;
182 -> 183 ;
184 [label="X[24] <= 5.0\ngini = 0.702\nsamples = 29\nvalue = [14, 3, 6, 0, 0, 1, 2, 0, 1, 0, 2, 0, 0, 0\n0, 0, 0]"] ;
183 -> 184 ;
185 [label="X[22] <= -235.0\ngini = 0.632\nsamples = 24\nvalue = [13, 1, 6, 0, 0, 1, 2, 0, 0, 0, 1, 0, 0, 0\n0, 0, 0]"] ;
184 -> 185 ;
186 [label="X[19] <= 14.0\ngini = 0.449\nsamples = 7\nvalue = [5, 0, 0, 0, 0, 1, 0, 0, 0, 0, 1, 0, 0, 0, 0\n0, 0]"] ;
185 -> 186 ;
187 [label="X[21] <= -2.5\ngini = 0.278\nsamples = 6\nvalue = [5, 0, 0, 0, 0, 0, 0, 0, 0, 0, 1, 0, 0, 0, 0\n0, 0]"] ;
186 -> 187 ;
188 [label="gini = 0.5\nsamples = 2\nvalue = [1, 0, 0, 0, 0, 0, 0, 0, 0, 0, 1, 0, 0, 0, 0\n0, 0]"] ;
187 -> 188 ;
189 [label="gini = 0.0\nsamples = 4\nvalue = [4, 0, 0, 0, 0, 0, 0, 0, 0, 0, 0, 0, 0, 0, 0\n0, 0]"] ;
187 -> 189 ;
190 [label="gini = 0.0\nsamples = 1\nvalue = [0, 0, 0, 0, 0, 1, 0, 0, 0, 0, 0, 0, 0, 0, 0\n0, 0]"] ;
186 -> 190 ;
191 [label="X[20] <= 0.5\ngini = 0.637\nsamples = 17\nvalue = [8, 1, 6, 0, 0, 0, 2, 0, 0, 0, 0, 0, 0, 0, 0\n0, 0]"] ;
185 -> 191 ;
192 [label="X[18] <= 1.708\ngini = 0.663\nsamples = 14\nvalue = [5, 1, 6, 0, 0, 0, 2, 0, 0, 0, 0, 0, 0, 0, 0\n0, 0]"] ;
191 -> 192 ;
193 [label="X[19] <= 6.0\ngini = 0.691\nsamples = 9\nvalue = [4, 1, 2, 0, 0, 0, 2, 0, 0, 0, 0, 0, 0, 0, 0\n0, 0]"] ;
192 -> 193 ;
194 [label="X[2] <= 1.5\ngini = 0.571\nsamples = 7\nvalue = [4, 1, 2, 0, 0, 0, 0, 0, 0, 0, 0, 0, 0, 0, 0\n0, 0]"] ;
193 -> 194 ;
195 [label="gini = 0.5\nsamples = 2\nvalue = [0, 1, 1, 0, 0, 0, 0, 0, 0, 0, 0, 0, 0, 0, 0\n0, 0]"] ;
194 -> 195 ;
196 [label="X[23] <= -195.0\ngini = 0.32\nsamples = 5\nvalue = [4, 0, 1, 0, 0, 0, 0, 0, 0, 0, 0, 0, 0, 0, 0\n0, 0]"] ;
194 -> 196 ;
197 [label="gini = 0.0\nsamples = 3\nvalue = [3, 0, 0, 0, 0, 0, 0, 0, 0, 0, 0, 0, 0, 0, 0\n0, 0]"] ;
196 -> 197 ;
198 [label="X[0] <= 87.5\ngini = 0.5\nsamples = 2\nvalue = [1, 0, 1, 0, 0, 0, 0, 0, 0, 0, 0, 0, 0, 0, 0\n0, 0]"] ;
196 -> 198 ;
199 [label="gini = 0.0\nsamples = 1\nvalue = [1, 0, 0, 0, 0, 0, 0, 0, 0, 0, 0, 0, 0, 0, 0\n0, 0]"] ;
198 -> 199 ;
200 [label="gini = 0.0\nsamples = 1\nvalue = [0, 0, 1, 0, 0, 0, 0, 0, 0, 0, 0, 0, 0, 0, 0\n0, 0]"] ;
198 -> 200 ;
201 [label="gini = 0.0\nsamples = 2\nvalue = [0, 0, 0, 0, 0, 0, 2, 0, 0, 0, 0, 0, 0, 0, 0\n0, 0]"] ;
193 -> 201 ;
202 [label="X[19] <= 16.0\ngini = 0.32\nsamples = 5\nvalue = [1, 0, 4, 0, 0, 0, 0, 0, 0, 0, 0, 0, 0, 0, 0\n0, 0]"] ;
192 -> 202 ;
203 [label="gini = 0.0\nsamples = 4\nvalue = [0, 0, 4, 0, 0, 0, 0, 0, 0, 0, 0, 0, 0, 0, 0\n0, 0]"] ;
202 -> 203 ;
204 [label="gini = 0.0\nsamples = 1\nvalue = [1, 0, 0, 0, 0, 0, 0, 0, 0, 0, 0, 0, 0, 0, 0\n0, 0]"] ;
202 -> 204 ;
205 [label="gini = 0.0\nsamples = 3\nvalue = [3, 0, 0, 0, 0, 0, 0, 0, 0, 0, 0, 0, 0, 0, 0\n0, 0]"] ;
191 -> 205 ;
206 [label="X[19] <= 3.5\ngini = 0.72\nsamples = 5\nvalue = [1, 2, 0, 0, 0, 0, 0, 0, 1, 0, 1, 0, 0, 0, 0\n0, 0]"] ;
184 -> 206 ;
207 [label="X[18] <= 1.924\ngini = 0.444\nsamples = 3\nvalue = [1, 2, 0, 0, 0, 0, 0, 0, 0, 0, 0, 0, 0, 0, 0\n0, 0]"] ;
206 -> 207 ;
208 [label="gini = 0.5\nsamples = 2\nvalue = [1, 1, 0, 0, 0, 0, 0, 0, 0, 0, 0, 0, 0, 0, 0\n0, 0]"] ;
207 -> 208 ;
209 [label="gini = 0.0\nsamples = 1\nvalue = [0, 1, 0, 0, 0, 0, 0, 0, 0, 0, 0, 0, 0, 0, 0\n0, 0]"] ;
207 -> 209 ;
210 [label="X[19] <= 9.0\ngini = 0.5\nsamples = 2\nvalue = [0, 0, 0, 0, 0, 0, 0, 0, 1, 0, 1, 0, 0, 0, 0\n0, 0]"] ;
206 -> 210 ;
211 [label="gini = 0.0\nsamples = 1\nvalue = [0, 0, 0, 0, 0, 0, 0, 0, 1, 0, 0, 0, 0, 0, 0\n0, 0]"] ;
210 -> 211 ;
212 [label="gini = 0.0\nsamples = 1\nvalue = [0, 0, 0, 0, 0, 0, 0, 0, 0, 0, 1, 0, 0, 0, 0\n0, 0]"] ;
210 -> 212 ;
213 [label="gini = 0.0\nsamples = 4\nvalue = [4, 0, 0, 0, 0, 0, 0, 0, 0, 0, 0, 0, 0, 0, 0\n0, 0]"] ;
183 -> 213 ;
214 [label="gini = 0.0\nsamples = 1\nvalue = [0, 0, 0, 0, 1, 0, 0, 0, 0, 0, 0, 0, 0, 0, 0\n0, 0]"] ;
182 -> 214 ;
215 [label="X[10] <= 62.5\ngini = 0.724\nsamples = 120\nvalue = [31, 37, 40, 6, 0, 2, 2, 0, 0, 1, 1, 0, 0, 0\n0, 0, 0]"] ;
167 -> 215 ;
216 [label="X[3] <= 15.5\ngini = 0.73\nsamples = 104\nvalue = [26, 36, 30, 6, 0, 2, 2, 0, 0, 1, 1, 0, 0, 0\n0, 0, 0]"] ;
215 -> 216 ;
217 [label="X[4] <= 310.0\ngini = 0.734\nsamples = 101\nvalue = [26, 33, 30, 6, 0, 2, 2, 0, 0, 1, 1, 0, 0, 0\n0, 0, 0]"] ;
216 -> 217 ;
218 [label="X[4] <= 222.5\ngini = 0.692\nsamples = 54\nvalue = [9, 22, 18, 1, 0, 2, 2, 0, 0, 0, 0, 0, 0, 0\n0, 0, 0]"] ;
217 -> 218 ;
219 [label="X[18] <= 1.737\ngini = 0.716\nsamples = 46\nvalue = [9, 16, 16, 1, 0, 2, 2, 0, 0, 0, 0, 0, 0, 0\n0, 0, 0]"] ;
218 -> 219 ;
220 [label="X[12] <= 16.5\ngini = 0.694\nsamples = 27\nvalue = [8, 6, 11, 0, 0, 1, 1, 0, 0, 0, 0, 0, 0, 0\n0, 0, 0]"] ;
219 -> 220 ;
221 [label="X[24] <= 105.0\ngini = 0.609\nsamples = 19\nvalue = [6, 2, 10, 0, 0, 0, 1, 0, 0, 0, 0, 0, 0, 0\n0, 0, 0]"] ;
220 -> 221 ;
222 [label="X[9] <= 263.5\ngini = 0.648\nsamples = 16\nvalue = [6, 2, 7, 0, 0, 0, 1, 0, 0, 0, 0, 0, 0, 0, 0\n0, 0]"] ;
221 -> 222 ;
223 [label="X[22] <= 65.0\ngini = 0.643\nsamples = 14\nvalue = [4, 2, 7, 0, 0, 0, 1, 0, 0, 0, 0, 0, 0, 0, 0\n0, 0]"] ;
222 -> 223 ;
224 [label="X[19] <= 15.5\ngini = 0.529\nsamples = 11\nvalue = [2, 2, 7, 0, 0, 0, 0, 0, 0, 0, 0, 0, 0, 0, 0\n0, 0]"] ;
223 -> 224 ;
225 [label="X[23] <= -210.0\ngini = 0.278\nsamples = 6\nvalue = [0, 1, 5, 0, 0, 0, 0, 0, 0, 0, 0, 0, 0, 0, 0\n0, 0]"] ;
224 -> 225 ;
226 [label="X[12] <= 4.0\ngini = 0.444\nsamples = 3\nvalue = [0, 1, 2, 0, 0, 0, 0, 0, 0, 0, 0, 0, 0, 0, 0\n0, 0]"] ;
225 -> 226 ;
227 [label="X[10] <= 50.0\ngini = 0.5\nsamples = 2\nvalue = [0, 1, 1, 0, 0, 0, 0, 0, 0, 0, 0, 0, 0, 0, 0\n0, 0]"] ;
226 -> 227 ;
228 [label="gini = 0.0\nsamples = 1\nvalue = [0, 1, 0, 0, 0, 0, 0, 0, 0, 0, 0, 0, 0, 0, 0\n0, 0]"] ;
227 -> 228 ;
229 [label="gini = 0.0\nsamples = 1\nvalue = [0, 0, 1, 0, 0, 0, 0, 0, 0, 0, 0, 0, 0, 0, 0\n0, 0]"] ;
227 -> 229 ;
230 [label="gini = 0.0\nsamples = 1\nvalue = [0, 0, 1, 0, 0, 0, 0, 0, 0, 0, 0, 0, 0, 0, 0\n0, 0]"] ;
226 -> 230 ;
231 [label="gini = 0.0\nsamples = 3\nvalue = [0, 0, 3, 0, 0, 0, 0, 0, 0, 0, 0, 0, 0, 0, 0\n0, 0]"] ;
225 -> 231 ;
232 [label="X[4] <= 0.5\ngini = 0.64\nsamples = 5\nvalue = [2, 1, 2, 0, 0, 0, 0, 0, 0, 0, 0, 0, 0, 0, 0\n0, 0]"] ;
224 -> 232 ;
233 [label="X[10] <= 42.5\ngini = 0.5\nsamples = 4\nvalue = [2, 0, 2, 0, 0, 0, 0, 0, 0, 0, 0, 0, 0, 0, 0\n0, 0]"] ;
232 -> 233 ;
234 [label="gini = 0.0\nsamples = 1\nvalue = [1, 0, 0, 0, 0, 0, 0, 0, 0, 0, 0, 0, 0, 0, 0\n0, 0]"] ;
233 -> 234 ;
235 [label="X[10] <= 50.0\ngini = 0.444\nsamples = 3\nvalue = [1, 0, 2, 0, 0, 0, 0, 0, 0, 0, 0, 0, 0, 0, 0\n0, 0]"] ;
233 -> 235 ;
236 [label="gini = 0.0\nsamples = 2\nvalue = [0, 0, 2, 0, 0, 0, 0, 0, 0, 0, 0, 0, 0, 0, 0\n0, 0]"] ;
235 -> 236 ;
237 [label="gini = 0.0\nsamples = 1\nvalue = [1, 0, 0, 0, 0, 0, 0, 0, 0, 0, 0, 0, 0, 0, 0\n0, 0]"] ;
235 -> 237 ;
238 [label="gini = 0.0\nsamples = 1\nvalue = [0, 1, 0, 0, 0, 0, 0, 0, 0, 0, 0, 0, 0, 0, 0\n0, 0]"] ;
232 -> 238 ;
239 [label="X[6] <= 44.5\ngini = 0.444\nsamples = 3\nvalue = [2, 0, 0, 0, 0, 0, 1, 0, 0, 0, 0, 0, 0, 0, 0\n0, 0]"] ;
223 -> 239 ;
240 [label="gini = 0.0\nsamples = 2\nvalue = [2, 0, 0, 0, 0, 0, 0, 0, 0, 0, 0, 0, 0, 0, 0\n0, 0]"] ;
239 -> 240 ;
241 [label="gini = 0.0\nsamples = 1\nvalue = [0, 0, 0, 0, 0, 0, 1, 0, 0, 0, 0, 0, 0, 0, 0\n0, 0]"] ;
239 -> 241 ;
242 [label="gini = 0.0\nsamples = 2\nvalue = [2, 0, 0, 0, 0, 0, 0, 0, 0, 0, 0, 0, 0, 0, 0\n0, 0]"] ;
222 -> 242 ;
243 [label="gini = 0.0\nsamples = 3\nvalue = [0, 0, 3, 0, 0, 0, 0, 0, 0, 0, 0, 0, 0, 0, 0\n0, 0]"] ;
221 -> 243 ;
244 [label="X[7] <= 10.5\ngini = 0.656\nsamples = 8\nvalue = [2, 4, 1, 0, 0, 1, 0, 0, 0, 0, 0, 0, 0, 0, 0\n0, 0]"] ;
220 -> 244 ;
245 [label="gini = 0.0\nsamples = 3\nvalue = [0, 3, 0, 0, 0, 0, 0, 0, 0, 0, 0, 0, 0, 0, 0\n0, 0]"] ;
244 -> 245 ;
246 [label="X[8] <= 75.5\ngini = 0.72\nsamples = 5\nvalue = [2, 1, 1, 0, 0, 1, 0, 0, 0, 0, 0, 0, 0, 0, 0\n0, 0]"] ;
244 -> 246 ;
247 [label="X[23] <= 115.0\ngini = 0.667\nsamples = 3\nvalue = [0, 1, 1, 0, 0, 1, 0, 0, 0, 0, 0, 0, 0, 0, 0\n0, 0]"] ;
246 -> 247 ;
248 [label="X[4] <= 160.5\ngini = 0.5\nsamples = 2\nvalue = [0, 1, 0, 0, 0, 1, 0, 0, 0, 0, 0, 0, 0, 0, 0\n0, 0]"] ;
247 -> 248 ;
249 [label="gini = 0.0\nsamples = 1\nvalue = [0, 1, 0, 0, 0, 0, 0, 0, 0, 0, 0, 0, 0, 0, 0\n0, 0]"] ;
248 -> 249 ;
250 [label="gini = 0.0\nsamples = 1\nvalue = [0, 0, 0, 0, 0, 1, 0, 0, 0, 0, 0, 0, 0, 0, 0\n0, 0]"] ;
248 -> 250 ;
251 [label="gini = 0.0\nsamples = 1\nvalue = [0, 0, 1, 0, 0, 0, 0, 0, 0, 0, 0, 0, 0, 0, 0\n0, 0]"] ;
247 -> 251 ;
252 [label="gini = 0.0\nsamples = 2\nvalue = [2, 0, 0, 0, 0, 0, 0, 0, 0, 0, 0, 0, 0, 0, 0\n0, 0]"] ;
246 -> 252 ;
253 [label="X[3] <= 2.5\ngini = 0.643\nsamples = 19\nvalue = [1, 10, 5, 1, 0, 1, 1, 0, 0, 0, 0, 0, 0, 0\n0, 0, 0]"] ;
219 -> 253 ;
254 [label="X[11] <= 184.0\ngini = 0.469\nsamples = 14\nvalue = [0, 10, 1, 1, 0, 1, 1, 0, 0, 0, 0, 0, 0, 0\n0, 0, 0]"] ;
253 -> 254 ;
255 [label="gini = 0.0\nsamples = 10\nvalue = [0, 10, 0, 0, 0, 0, 0, 0, 0, 0, 0, 0, 0, 0\n0, 0, 0]"] ;
254 -> 255 ;
256 [label="X[3] <= 0.5\ngini = 0.75\nsamples = 4\nvalue = [0, 0, 1, 1, 0, 1, 1, 0, 0, 0, 0, 0, 0, 0, 0\n0, 0]"] ;
254 -> 256 ;
257 [label="X[19] <= 13.0\ngini = 0.5\nsamples = 2\nvalue = [0, 0, 0, 1, 0, 0, 1, 0, 0, 0, 0, 0, 0, 0, 0\n0, 0]"] ;
256 -> 257 ;
258 [label="gini = 0.0\nsamples = 1\nvalue = [0, 0, 0, 1, 0, 0, 0, 0, 0, 0, 0, 0, 0, 0, 0\n0, 0]"] ;
257 -> 258 ;
259 [label="gini = 0.0\nsamples = 1\nvalue = [0, 0, 0, 0, 0, 0, 1, 0, 0, 0, 0, 0, 0, 0, 0\n0, 0]"] ;
257 -> 259 ;
260 [label="X[20] <= 0.5\ngini = 0.5\nsamples = 2\nvalue = [0, 0, 1, 0, 0, 1, 0, 0, 0, 0, 0, 0, 0, 0, 0\n0, 0]"] ;
256 -> 260 ;
261 [label="gini = 0.0\nsamples = 1\nvalue = [0, 0, 0, 0, 0, 1, 0, 0, 0, 0, 0, 0, 0, 0, 0\n0, 0]"] ;
260 -> 261 ;
262 [label="gini = 0.0\nsamples = 1\nvalue = [0, 0, 1, 0, 0, 0, 0, 0, 0, 0, 0, 0, 0, 0, 0\n0, 0]"] ;
260 -> 262 ;
263 [label="X[13] <= 6.0\ngini = 0.32\nsamples = 5\nvalue = [1, 0, 4, 0, 0, 0, 0, 0, 0, 0, 0, 0, 0, 0, 0\n0, 0]"] ;
253 -> 263 ;
264 [label="gini = 0.0\nsamples = 4\nvalue = [0, 0, 4, 0, 0, 0, 0, 0, 0, 0, 0, 0, 0, 0, 0\n0, 0]"] ;
263 -> 264 ;
265 [label="gini = 0.0\nsamples = 1\nvalue = [1, 0, 0, 0, 0, 0, 0, 0, 0, 0, 0, 0, 0, 0, 0\n0, 0]"] ;
263 -> 265 ;
266 [label="X[5] <= 76.5\ngini = 0.375\nsamples = 8\nvalue = [0, 6, 2, 0, 0, 0, 0, 0, 0, 0, 0, 0, 0, 0, 0\n0, 0]"] ;
218 -> 266 ;
267 [label="X[17] <= 11.0\ngini = 0.444\nsamples = 3\nvalue = [0, 1, 2, 0, 0, 0, 0, 0, 0, 0, 0, 0, 0, 0, 0\n0, 0]"] ;
266 -> 267 ;
268 [label="gini = 0.0\nsamples = 2\nvalue = [0, 0, 2, 0, 0, 0, 0, 0, 0, 0, 0, 0, 0, 0, 0\n0, 0]"] ;
267 -> 268 ;
269 [label="gini = 0.0\nsamples = 1\nvalue = [0, 1, 0, 0, 0, 0, 0, 0, 0, 0, 0, 0, 0, 0, 0\n0, 0]"] ;
267 -> 269 ;
270 [label="gini = 0.0\nsamples = 5\nvalue = [0, 5, 0, 0, 0, 0, 0, 0, 0, 0, 0, 0, 0, 0, 0\n0, 0]"] ;
266 -> 270 ;
271 [label="X[8] <= 165.0\ngini = 0.737\nsamples = 47\nvalue = [17, 11, 12, 5, 0, 0, 0, 0, 0, 1, 1, 0, 0, 0\n0, 0, 0]"] ;
217 -> 271 ;
272 [label="X[19] <= 7.0\ngini = 0.408\nsamples = 7\nvalue = [5, 0, 0, 2, 0, 0, 0, 0, 0, 0, 0, 0, 0, 0, 0\n0, 0]"] ;
271 -> 272 ;
273 [label="gini = 0.0\nsamples = 2\nvalue = [0, 0, 0, 2, 0, 0, 0, 0, 0, 0, 0, 0, 0, 0, 0\n0, 0]"] ;
272 -> 273 ;
274 [label="gini = 0.0\nsamples = 5\nvalue = [5, 0, 0, 0, 0, 0, 0, 0, 0, 0, 0, 0, 0, 0, 0\n0, 0]"] ;
272 -> 274 ;
275 [label="X[8] <= 201.5\ngini = 0.738\nsamples = 40\nvalue = [12, 11, 12, 3, 0, 0, 0, 0, 0, 1, 1, 0, 0, 0\n0, 0, 0]"] ;
271 -> 275 ;
276 [label="X[7] <= 24.0\ngini = 0.408\nsamples = 7\nvalue = [2, 0, 5, 0, 0, 0, 0, 0, 0, 0, 0, 0, 0, 0, 0\n0, 0]"] ;
275 -> 276 ;
277 [label="gini = 0.0\nsamples = 2\nvalue = [2, 0, 0, 0, 0, 0, 0, 0, 0, 0, 0, 0, 0, 0, 0\n0, 0]"] ;
276 -> 277 ;
278 [label="gini = 0.0\nsamples = 5\nvalue = [0, 0, 5, 0, 0, 0, 0, 0, 0, 0, 0, 0, 0, 0, 0\n0, 0]"] ;
276 -> 278 ;
279 [label="X[8] <= 214.5\ngini = 0.742\nsamples = 33\nvalue = [10, 11, 7, 3, 0, 0, 0, 0, 0, 1, 1, 0, 0, 0\n0, 0, 0]"] ;
275 -> 279 ;
280 [label="gini = 0.0\nsamples = 5\nvalue = [0, 5, 0, 0, 0, 0, 0, 0, 0, 0, 0, 0, 0, 0, 0\n0, 0]"] ;
279 -> 280 ;
281 [label="X[7] <= 25.5\ngini = 0.75\nsamples = 28\nvalue = [10, 6, 7, 3, 0, 0, 0, 0, 0, 1, 1, 0, 0, 0\n0, 0, 0]"] ;
279 -> 281 ;
282 [label="gini = 0.0\nsamples = 3\nvalue = [0, 0, 3, 0, 0, 0, 0, 0, 0, 0, 0, 0, 0, 0, 0\n0, 0]"] ;
281 -> 282 ;
283 [label="X[24] <= -60.0\ngini = 0.739\nsamples = 25\nvalue = [10, 6, 4, 3, 0, 0, 0, 0, 0, 1, 1, 0, 0, 0\n0, 0, 0]"] ;
281 -> 283 ;
284 [label="X[12] <= 79.5\ngini = 0.5\nsamples = 6\nvalue = [1, 0, 4, 0, 0, 0, 0, 0, 0, 1, 0, 0, 0, 0, 0\n0, 0]"] ;
283 -> 284 ;
285 [label="gini = 0.0\nsamples = 1\nvalue = [0, 0, 0, 0, 0, 0, 0, 0, 0, 1, 0, 0, 0, 0, 0\n0, 0]"] ;
284 -> 285 ;
286 [label="X[6] <= 50.5\ngini = 0.32\nsamples = 5\nvalue = [1, 0, 4, 0, 0, 0, 0, 0, 0, 0, 0, 0, 0, 0, 0\n0, 0]"] ;
284 -> 286 ;
287 [label="gini = 0.0\nsamples = 3\nvalue = [0, 0, 3, 0, 0, 0, 0, 0, 0, 0, 0, 0, 0, 0, 0\n0, 0]"] ;
286 -> 287 ;
288 [label="X[15] <= 2.5\ngini = 0.5\nsamples = 2\nvalue = [1, 0, 1, 0, 0, 0, 0, 0, 0, 0, 0, 0, 0, 0, 0\n0, 0]"] ;
286 -> 288 ;
289 [label="gini = 0.0\nsamples = 1\nvalue = [0, 0, 1, 0, 0, 0, 0, 0, 0, 0, 0, 0, 0, 0, 0\n0, 0]"] ;
288 -> 289 ;
290 [label="gini = 0.0\nsamples = 1\nvalue = [1, 0, 0, 0, 0, 0, 0, 0, 0, 0, 0, 0, 0, 0, 0\n0, 0]"] ;
288 -> 290 ;
291 [label="X[3] <= 14.5\ngini = 0.648\nsamples = 19\nvalue = [9, 6, 0, 3, 0, 0, 0, 0, 0, 0, 1, 0, 0, 0, 0\n0, 0]"] ;
283 -> 291 ;
292 [label="X[13] <= 6.5\ngini = 0.588\nsamples = 17\nvalue = [9, 6, 0, 1, 0, 0, 0, 0, 0, 0, 1, 0, 0, 0, 0\n0, 0]"] ;
291 -> 292 ;
293 [label="X[10] <= 42.5\ngini = 0.514\nsamples = 12\nvalue = [8, 2, 0, 1, 0, 0, 0, 0, 0, 0, 1, 0, 0, 0, 0\n0, 0]"] ;
292 -> 293 ;
294 [label="gini = 0.0\nsamples = 1\nvalue = [0, 0, 0, 1, 0, 0, 0, 0, 0, 0, 0, 0, 0, 0, 0\n0, 0]"] ;
293 -> 294 ;
295 [label="X[12] <= 100.5\ngini = 0.43\nsamples = 11\nvalue = [8, 2, 0, 0, 0, 0, 0, 0, 0, 0, 1, 0, 0, 0, 0\n0, 0]"] ;
293 -> 295 ;
296 [label="X[23] <= -35.0\ngini = 0.64\nsamples = 5\nvalue = [2, 2, 0, 0, 0, 0, 0, 0, 0, 0, 1, 0, 0, 0, 0\n0, 0]"] ;
295 -> 296 ;
297 [label="gini = 0.0\nsamples = 1\nvalue = [0, 0, 0, 0, 0, 0, 0, 0, 0, 0, 1, 0, 0, 0, 0\n0, 0]"] ;
296 -> 297 ;
298 [label="X[9] <= 1862.5\ngini = 0.5\nsamples = 4\nvalue = [2, 2, 0, 0, 0, 0, 0, 0, 0, 0, 0, 0, 0, 0, 0\n0, 0]"] ;
296 -> 298 ;
299 [label="gini = 0.0\nsamples = 1\nvalue = [1, 0, 0, 0, 0, 0, 0, 0, 0, 0, 0, 0, 0, 0, 0\n0, 0]"] ;
298 -> 299 ;
300 [label="X[8] <= 297.0\ngini = 0.444\nsamples = 3\nvalue = [1, 2, 0, 0, 0, 0, 0, 0, 0, 0, 0, 0, 0, 0, 0\n0, 0]"] ;
298 -> 300 ;
301 [label="gini = 0.0\nsamples = 2\nvalue = [0, 2, 0, 0, 0, 0, 0, 0, 0, 0, 0, 0, 0, 0, 0\n0, 0]"] ;
300 -> 301 ;
302 [label="gini = 0.0\nsamples = 1\nvalue = [1, 0, 0, 0, 0, 0, 0, 0, 0, 0, 0, 0, 0, 0, 0\n0, 0]"] ;
300 -> 302 ;
303 [label="gini = 0.0\nsamples = 6\nvalue = [6, 0, 0, 0, 0, 0, 0, 0, 0, 0, 0, 0, 0, 0, 0\n0, 0]"] ;
295 -> 303 ;
304 [label="X[7] <= 32.0\ngini = 0.32\nsamples = 5\nvalue = [1, 4, 0, 0, 0, 0, 0, 0, 0, 0, 0, 0, 0, 0, 0\n0, 0]"] ;
292 -> 304 ;
305 [label="gini = 0.0\nsamples = 1\nvalue = [1, 0, 0, 0, 0, 0, 0, 0, 0, 0, 0, 0, 0, 0, 0\n0, 0]"] ;
304 -> 305 ;
306 [label="gini = 0.0\nsamples = 4\nvalue = [0, 4, 0, 0, 0, 0, 0, 0, 0, 0, 0, 0, 0, 0, 0\n0, 0]"] ;
304 -> 306 ;
307 [label="gini = 0.0\nsamples = 2\nvalue = [0, 0, 0, 2, 0, 0, 0, 0, 0, 0, 0, 0, 0, 0, 0\n0, 0]"] ;
291 -> 307 ;
308 [label="gini = 0.0\nsamples = 3\nvalue = [0, 3, 0, 0, 0, 0, 0, 0, 0, 0, 0, 0, 0, 0, 0\n0, 0]"] ;
216 -> 308 ;
309 [label="X[12] <= 167.0\ngini = 0.508\nsamples = 16\nvalue = [5, 1, 10, 0, 0, 0, 0, 0, 0, 0, 0, 0, 0, 0\n0, 0, 0]"] ;
215 -> 309 ;
310 [label="X[24] <= -45.0\ngini = 0.355\nsamples = 13\nvalue = [3, 0, 10, 0, 0, 0, 0, 0, 0, 0, 0, 0, 0, 0\n0, 0, 0]"] ;
309 -> 310 ;
311 [label="gini = 0.0\nsamples = 2\nvalue = [2, 0, 0, 0, 0, 0, 0, 0, 0, 0, 0, 0, 0, 0, 0\n0, 0]"] ;
310 -> 311 ;
312 [label="X[3] <= 4.0\ngini = 0.165\nsamples = 11\nvalue = [1, 0, 10, 0, 0, 0, 0, 0, 0, 0, 0, 0, 0, 0\n0, 0, 0]"] ;
310 -> 312 ;
313 [label="X[19] <= 8.0\ngini = 0.5\nsamples = 2\nvalue = [1, 0, 1, 0, 0, 0, 0, 0, 0, 0, 0, 0, 0, 0, 0\n0, 0]"] ;
312 -> 313 ;
314 [label="gini = 0.0\nsamples = 1\nvalue = [1, 0, 0, 0, 0, 0, 0, 0, 0, 0, 0, 0, 0, 0, 0\n0, 0]"] ;
313 -> 314 ;
315 [label="gini = 0.0\nsamples = 1\nvalue = [0, 0, 1, 0, 0, 0, 0, 0, 0, 0, 0, 0, 0, 0, 0\n0, 0]"] ;
313 -> 315 ;
316 [label="gini = 0.0\nsamples = 9\nvalue = [0, 0, 9, 0, 0, 0, 0, 0, 0, 0, 0, 0, 0, 0, 0\n0, 0]"] ;
312 -> 316 ;
317 [label="X[24] <= 310.0\ngini = 0.444\nsamples = 3\nvalue = [2, 1, 0, 0, 0, 0, 0, 0, 0, 0, 0, 0, 0, 0, 0\n0, 0]"] ;
309 -> 317 ;
318 [label="gini = 0.0\nsamples = 2\nvalue = [2, 0, 0, 0, 0, 0, 0, 0, 0, 0, 0, 0, 0, 0, 0\n0, 0]"] ;
317 -> 318 ;
319 [label="gini = 0.0\nsamples = 1\nvalue = [0, 1, 0, 0, 0, 0, 0, 0, 0, 0, 0, 0, 0, 0, 0\n0, 0]"] ;
317 -> 319 ;
320 [label="X[13] <= 9.5\ngini = 0.827\nsamples = 65\nvalue = [16, 11, 8, 16, 1, 2, 4, 0, 0, 3, 1, 1, 0, 1\n0, 0, 1]"] ;
166 -> 320 ;
321 [label="X[8] <= 275.5\ngini = 0.825\nsamples = 62\nvalue = [16, 8, 8, 16, 1, 2, 4, 0, 0, 3, 1, 1, 0, 1\n0, 0, 1]"] ;
320 -> 321 ;
322 [label="X[6] <= 54.5\ngini = 0.833\nsamples = 53\nvalue = [15, 8, 7, 10, 1, 1, 4, 0, 0, 3, 1, 1, 0, 1\n0, 0, 1]"] ;
321 -> 322 ;
323 [label="X[12] <= 91.0\ngini = 0.814\nsamples = 48\nvalue = [15, 5, 7, 10, 1, 1, 4, 0, 0, 3, 1, 0, 0, 0\n0, 0, 1]"] ;
322 -> 323 ;
324 [label="X[5] <= 275.0\ngini = 0.809\nsamples = 46\nvalue = [15, 5, 5, 10, 1, 1, 4, 0, 0, 3, 1, 0, 0, 0\n0, 0, 1]"] ;
323 -> 324 ;
325 [label="X[8] <= 193.0\ngini = 0.822\nsamples = 41\nvalue = [11, 5, 5, 10, 0, 1, 4, 0, 0, 3, 1, 0, 0, 0\n0, 0, 1]"] ;
324 -> 325 ;
326 [label="X[10] <= 42.5\ngini = 0.806\nsamples = 36\nvalue = [10, 2, 5, 10, 0, 1, 4, 0, 0, 2, 1, 0, 0, 0\n0, 0, 1]"] ;
325 -> 326 ;
327 [label="X[16] <= 1205.0\ngini = 0.737\nsamples = 19\nvalue = [8, 2, 4, 3, 0, 1, 0, 0, 0, 1, 0, 0, 0, 0, 0\n0, 0]"] ;
326 -> 327 ;
328 [label="X[20] <= 0.5\ngini = 0.76\nsamples = 10\nvalue = [1, 2, 3, 3, 0, 1, 0, 0, 0, 0, 0, 0, 0, 0, 0\n0, 0]"] ;
327 -> 328 ;
329 [label="X[24] <= -145.0\ngini = 0.56\nsamples = 5\nvalue = [1, 0, 3, 0, 0, 1, 0, 0, 0, 0, 0, 0, 0, 0, 0\n0, 0]"] ;
328 -> 329 ;
330 [label="gini = 0.0\nsamples = 3\nvalue = [0, 0, 3, 0, 0, 0, 0, 0, 0, 0, 0, 0, 0, 0, 0\n0, 0]"] ;
329 -> 330 ;
331 [label="X[19] <= 7.5\ngini = 0.5\nsamples = 2\nvalue = [1, 0, 0, 0, 0, 1, 0, 0, 0, 0, 0, 0, 0, 0, 0\n0, 0]"] ;
329 -> 331 ;
332 [label="gini = 0.0\nsamples = 1\nvalue = [1, 0, 0, 0, 0, 0, 0, 0, 0, 0, 0, 0, 0, 0, 0\n0, 0]"] ;
331 -> 332 ;
333 [label="gini = 0.0\nsamples = 1\nvalue = [0, 0, 0, 0, 0, 1, 0, 0, 0, 0, 0, 0, 0, 0, 0\n0, 0]"] ;
331 -> 333 ;
334 [label="X[22] <= -100.0\ngini = 0.48\nsamples = 5\nvalue = [0, 2, 0, 3, 0, 0, 0, 0, 0, 0, 0, 0, 0, 0, 0\n0, 0]"] ;
328 -> 334 ;
335 [label="gini = 0.0\nsamples = 2\nvalue = [0, 0, 0, 2, 0, 0, 0, 0, 0, 0, 0, 0, 0, 0, 0\n0, 0]"] ;
334 -> 335 ;
336 [label="X[23] <= -40.0\ngini = 0.444\nsamples = 3\nvalue = [0, 2, 0, 1, 0, 0, 0, 0, 0, 0, 0, 0, 0, 0, 0\n0, 0]"] ;
334 -> 336 ;
337 [label="gini = 0.5\nsamples = 2\nvalue = [0, 1, 0, 1, 0, 0, 0, 0, 0, 0, 0, 0, 0, 0, 0\n0, 0]"] ;
336 -> 337 ;
338 [label="gini = 0.0\nsamples = 1\nvalue = [0, 1, 0, 0, 0, 0, 0, 0, 0, 0, 0, 0, 0, 0, 0\n0, 0]"] ;
336 -> 338 ;
339 [label="X[9] <= 565.0\ngini = 0.37\nsamples = 9\nvalue = [7, 0, 1, 0, 0, 0, 0, 0, 0, 1, 0, 0, 0, 0, 0\n0, 0]"] ;
327 -> 339 ;
340 [label="X[2] <= 1.5\ngini = 0.219\nsamples = 8\nvalue = [7, 0, 0, 0, 0, 0, 0, 0, 0, 1, 0, 0, 0, 0, 0\n0, 0]"] ;
339 -> 340 ;
341 [label="gini = 0.0\nsamples = 1\nvalue = [0, 0, 0, 0, 0, 0, 0, 0, 0, 1, 0, 0, 0, 0, 0\n0, 0]"] ;
340 -> 341 ;
342 [label="gini = 0.0\nsamples = 7\nvalue = [7, 0, 0, 0, 0, 0, 0, 0, 0, 0, 0, 0, 0, 0, 0\n0, 0]"] ;
340 -> 342 ;
343 [label="gini = 0.0\nsamples = 1\nvalue = [0, 0, 1, 0, 0, 0, 0, 0, 0, 0, 0, 0, 0, 0, 0\n0, 0]"] ;
339 -> 343 ;
344 [label="X[8] <= 82.5\ngini = 0.747\nsamples = 17\nvalue = [2, 0, 1, 7, 0, 0, 4, 0, 0, 1, 1, 0, 0, 0, 0\n0, 1]"] ;
326 -> 344 ;
345 [label="gini = 0.0\nsamples = 5\nvalue = [0, 0, 0, 5, 0, 0, 0, 0, 0, 0, 0, 0, 0, 0, 0\n0, 0]"] ;
344 -> 345 ;
346 [label="X[4] <= 347.0\ngini = 0.806\nsamples = 12\nvalue = [2, 0, 1, 2, 0, 0, 4, 0, 0, 1, 1, 0, 0, 0, 0\n0, 1]"] ;
344 -> 346 ;
347 [label="X[6] <= 44.5\ngini = 0.76\nsamples = 10\nvalue = [0, 0, 1, 2, 0, 0, 4, 0, 0, 1, 1, 0, 0, 0, 0\n0, 1]"] ;
346 -> 347 ;
348 [label="X[23] <= 235.0\ngini = 0.72\nsamples = 5\nvalue = [0, 0, 0, 2, 0, 0, 0, 0, 0, 1, 1, 0, 0, 0, 0\n0, 1]"] ;
347 -> 348 ;
349 [label="X[4] <= 222.5\ngini = 0.667\nsamples = 3\nvalue = [0, 0, 0, 0, 0, 0, 0, 0, 0, 1, 1, 0, 0, 0, 0\n0, 1]"] ;
348 -> 349 ;
350 [label="gini = 0.0\nsamples = 1\nvalue = [0, 0, 0, 0, 0, 0, 0, 0, 0, 0, 0, 0, 0, 0, 0\n0, 1]"] ;
349 -> 350 ;
351 [label="X[16] <= 1220.0\ngini = 0.5\nsamples = 2\nvalue = [0, 0, 0, 0, 0, 0, 0, 0, 0, 1, 1, 0, 0, 0, 0\n0, 0]"] ;
349 -> 351 ;
352 [label="gini = 0.0\nsamples = 1\nvalue = [0, 0, 0, 0, 0, 0, 0, 0, 0, 1, 0, 0, 0, 0, 0\n0, 0]"] ;
351 -> 352 ;
353 [label="gini = 0.0\nsamples = 1\nvalue = [0, 0, 0, 0, 0, 0, 0, 0, 0, 0, 1, 0, 0, 0, 0\n0, 0]"] ;
351 -> 353 ;
354 [label="gini = 0.0\nsamples = 2\nvalue = [0, 0, 0, 2, 0, 0, 0, 0, 0, 0, 0, 0, 0, 0, 0\n0, 0]"] ;
348 -> 354 ;
355 [label="X[24] <= -185.0\ngini = 0.32\nsamples = 5\nvalue = [0, 0, 1, 0, 0, 0, 4, 0, 0, 0, 0, 0, 0, 0, 0\n0, 0]"] ;
347 -> 355 ;
356 [label="gini = 0.0\nsamples = 1\nvalue = [0, 0, 1, 0, 0, 0, 0, 0, 0, 0, 0, 0, 0, 0, 0\n0, 0]"] ;
355 -> 356 ;
357 [label="gini = 0.0\nsamples = 4\nvalue = [0, 0, 0, 0, 0, 0, 4, 0, 0, 0, 0, 0, 0, 0, 0\n0, 0]"] ;
355 -> 357 ;
358 [label="gini = 0.0\nsamples = 2\nvalue = [2, 0, 0, 0, 0, 0, 0, 0, 0, 0, 0, 0, 0, 0, 0\n0, 0]"] ;
346 -> 358 ;
359 [label="X[4] <= 476.0\ngini = 0.56\nsamples = 5\nvalue = [1, 3, 0, 0, 0, 0, 0, 0, 0, 1, 0, 0, 0, 0, 0\n0, 0]"] ;
325 -> 359 ;
360 [label="gini = 0.0\nsamples = 3\nvalue = [0, 3, 0, 0, 0, 0, 0, 0, 0, 0, 0, 0, 0, 0, 0\n0, 0]"] ;
359 -> 360 ;
361 [label="X[2] <= 1.5\ngini = 0.5\nsamples = 2\nvalue = [1, 0, 0, 0, 0, 0, 0, 0, 0, 1, 0, 0, 0, 0, 0\n0, 0]"] ;
359 -> 361 ;
362 [label="gini = 0.0\nsamples = 1\nvalue = [1, 0, 0, 0, 0, 0, 0, 0, 0, 0, 0, 0, 0, 0, 0\n0, 0]"] ;
361 -> 362 ;
363 [label="gini = 0.0\nsamples = 1\nvalue = [0, 0, 0, 0, 0, 0, 0, 0, 0, 1, 0, 0, 0, 0, 0\n0, 0]"] ;
361 -> 363 ;
364 [label="X[23] <= 315.0\ngini = 0.32\nsamples = 5\nvalue = [4, 0, 0, 0, 1, 0, 0, 0, 0, 0, 0, 0, 0, 0, 0\n0, 0]"] ;
324 -> 364 ;
365 [label="gini = 0.0\nsamples = 4\nvalue = [4, 0, 0, 0, 0, 0, 0, 0, 0, 0, 0, 0, 0, 0, 0\n0, 0]"] ;
364 -> 365 ;
366 [label="gini = 0.0\nsamples = 1\nvalue = [0, 0, 0, 0, 1, 0, 0, 0, 0, 0, 0, 0, 0, 0, 0\n0, 0]"] ;
364 -> 366 ;
367 [label="gini = 0.0\nsamples = 2\nvalue = [0, 0, 2, 0, 0, 0, 0, 0, 0, 0, 0, 0, 0, 0, 0\n0, 0]"] ;
323 -> 367 ;
368 [label="X[22] <= 310.0\ngini = 0.56\nsamples = 5\nvalue = [0, 3, 0, 0, 0, 0, 0, 0, 0, 0, 0, 1, 0, 1, 0\n0, 0]"] ;
322 -> 368 ;
369 [label="X[11] <= 91.5\ngini = 0.375\nsamples = 4\nvalue = [0, 3, 0, 0, 0, 0, 0, 0, 0, 0, 0, 1, 0, 0, 0\n0, 0]"] ;
368 -> 369 ;
370 [label="gini = 0.0\nsamples = 1\nvalue = [0, 0, 0, 0, 0, 0, 0, 0, 0, 0, 0, 1, 0, 0, 0\n0, 0]"] ;
369 -> 370 ;
371 [label="gini = 0.0\nsamples = 3\nvalue = [0, 3, 0, 0, 0, 0, 0, 0, 0, 0, 0, 0, 0, 0, 0\n0, 0]"] ;
369 -> 371 ;
372 [label="gini = 0.0\nsamples = 1\nvalue = [0, 0, 0, 0, 0, 0, 0, 0, 0, 0, 0, 0, 0, 1, 0\n0, 0]"] ;
368 -> 372 ;
373 [label="X[13] <= 5.5\ngini = 0.519\nsamples = 9\nvalue = [1, 0, 1, 6, 0, 1, 0, 0, 0, 0, 0, 0, 0, 0, 0\n0, 0]"] ;
321 -> 373 ;
374 [label="X[7] <= 3.5\ngini = 0.406\nsamples = 8\nvalue = [1, 0, 1, 6, 0, 0, 0, 0, 0, 0, 0, 0, 0, 0, 0\n0, 0]"] ;
373 -> 374 ;
375 [label="gini = 0.0\nsamples = 1\nvalue = [0, 0, 1, 0, 0, 0, 0, 0, 0, 0, 0, 0, 0, 0, 0\n0, 0]"] ;
374 -> 375 ;
376 [label="X[4] <= 630.5\ngini = 0.245\nsamples = 7\nvalue = [1, 0, 0, 6, 0, 0, 0, 0, 0, 0, 0, 0, 0, 0, 0\n0, 0]"] ;
374 -> 376 ;
377 [label="gini = 0.0\nsamples = 5\nvalue = [0, 0, 0, 5, 0, 0, 0, 0, 0, 0, 0, 0, 0, 0, 0\n0, 0]"] ;
376 -> 377 ;
378 [label="X[19] <= 14.5\ngini = 0.5\nsamples = 2\nvalue = [1, 0, 0, 1, 0, 0, 0, 0, 0, 0, 0, 0, 0, 0, 0\n0, 0]"] ;
376 -> 378 ;
379 [label="gini = 0.0\nsamples = 1\nvalue = [0, 0, 0, 1, 0, 0, 0, 0, 0, 0, 0, 0, 0, 0, 0\n0, 0]"] ;
378 -> 379 ;
380 [label="gini = 0.0\nsamples = 1\nvalue = [1, 0, 0, 0, 0, 0, 0, 0, 0, 0, 0, 0, 0, 0, 0\n0, 0]"] ;
378 -> 380 ;
381 [label="gini = 0.0\nsamples = 1\nvalue = [0, 0, 0, 0, 0, 1, 0, 0, 0, 0, 0, 0, 0, 0, 0\n0, 0]"] ;
373 -> 381 ;
382 [label="gini = 0.0\nsamples = 3\nvalue = [0, 3, 0, 0, 0, 0, 0, 0, 0, 0, 0, 0, 0, 0, 0\n0, 0]"] ;
320 -> 382 ;
}
