digraph Tree {
node [shape=box] ;
0 [label="X[18] <= 157.0\ngini = 0.665\nsamples = 550\nvalue = [1, 1, 296, 83, 72, 22, 7, 8, 27, 8, 9, 6, 3\n4, 1, 1, 1]"] ;
1 [label="X[17] <= 1.5\ngini = 0.219\nsamples = 274\nvalue = [1, 0, 241, 23, 1, 1, 4, 0, 1, 0, 0, 0, 1, 1\n0, 0, 0]"] ;
0 -> 1 [labeldistance=2.5, labelangle=45, headlabel="True"] ;
2 [label="X[87] <= 12.167\ngini = 0.022\nsamples = 182\nvalue = [0, 0, 180, 2, 0, 0, 0, 0, 0, 0, 0, 0, 0, 0\n0, 0, 0]"] ;
1 -> 2 ;
3 [label="X[120] <= 0.333\ngini = 0.011\nsamples = 180\nvalue = [0, 0, 179, 1, 0, 0, 0, 0, 0, 0, 0, 0, 0, 0\n0, 0, 0]"] ;
2 -> 3 ;
4 [label="X[13] <= 2.5\ngini = 0.375\nsamples = 4\nvalue = [0, 0, 3, 1, 0, 0, 0, 0, 0, 0, 0, 0, 0, 0, 0\n0, 0]"] ;
3 -> 4 ;
5 [label="gini = 0.0\nsamples = 3\nvalue = [0, 0, 3, 0, 0, 0, 0, 0, 0, 0, 0, 0, 0, 0, 0\n0, 0]"] ;
4 -> 5 ;
6 [label="gini = 0.0\nsamples = 1\nvalue = [0, 0, 0, 1, 0, 0, 0, 0, 0, 0, 0, 0, 0, 0, 0\n0, 0]"] ;
4 -> 6 ;
7 [label="gini = 0.0\nsamples = 176\nvalue = [0, 0, 176, 0, 0, 0, 0, 0, 0, 0, 0, 0, 0, 0\n0, 0, 0]"] ;
3 -> 7 ;
8 [label="X[18] <= 0.5\ngini = 0.5\nsamples = 2\nvalue = [0, 0, 1, 1, 0, 0, 0, 0, 0, 0, 0, 0, 0, 0, 0\n0, 0]"] ;
2 -> 8 ;
9 [label="gini = 0.0\nsamples = 1\nvalue = [0, 0, 1, 0, 0, 0, 0, 0, 0, 0, 0, 0, 0, 0, 0\n0, 0]"] ;
8 -> 9 ;
10 [label="gini = 0.0\nsamples = 1\nvalue = [0, 0, 0, 1, 0, 0, 0, 0, 0, 0, 0, 0, 0, 0, 0\n0, 0]"] ;
8 -> 10 ;
11 [label="X[23] <= 0.5\ngini = 0.506\nsamples = 92\nvalue = [1, 0, 61, 21, 1, 1, 4, 0, 1, 0, 0, 0, 1, 1\n0, 0, 0]"] ;
1 -> 11 ;
12 [label="X[10] <= 35.85\ngini = 0.47\nsamples = 88\nvalue = [0, 0, 61, 19, 0, 1, 4, 0, 1, 0, 0, 0, 1, 1\n0, 0, 0]"] ;
11 -> 12 ;
13 [label="X[98] <= 177.5\ngini = 0.419\nsamples = 80\nvalue = [0, 0, 59, 15, 0, 1, 3, 0, 1, 0, 0, 0, 1, 0\n0, 0, 0]"] ;
12 -> 13 ;
14 [label="X[81] <= 61.333\ngini = 0.398\nsamples = 78\nvalue = [0, 0, 59, 13, 0, 1, 3, 0, 1, 0, 0, 0, 1, 0\n0, 0, 0]"] ;
13 -> 14 ;
15 [label="X[120] <= 4.5\ngini = 0.37\nsamples = 76\nvalue = [0, 0, 59, 12, 0, 1, 3, 0, 0, 0, 0, 0, 1, 0\n0, 0, 0]"] ;
14 -> 15 ;
16 [label="X[60] <= 12.0\ngini = 0.593\nsamples = 9\nvalue = [0, 0, 4, 4, 0, 0, 0, 0, 0, 0, 0, 0, 1, 0, 0\n0, 0]"] ;
15 -> 16 ;
17 [label="X[10] <= 0.95\ngini = 0.5\nsamples = 6\nvalue = [0, 0, 1, 4, 0, 0, 0, 0, 0, 0, 0, 0, 1, 0, 0\n0, 0]"] ;
16 -> 17 ;
18 [label="X[77] <= 0.5\ngini = 0.5\nsamples = 2\nvalue = [0, 0, 1, 0, 0, 0, 0, 0, 0, 0, 0, 0, 1, 0, 0\n0, 0]"] ;
17 -> 18 ;
19 [label="gini = 0.0\nsamples = 1\nvalue = [0, 0, 0, 0, 0, 0, 0, 0, 0, 0, 0, 0, 1, 0, 0\n0, 0]"] ;
18 -> 19 ;
20 [label="gini = 0.0\nsamples = 1\nvalue = [0, 0, 1, 0, 0, 0, 0, 0, 0, 0, 0, 0, 0, 0, 0\n0, 0]"] ;
18 -> 20 ;
21 [label="gini = 0.0\nsamples = 4\nvalue = [0, 0, 0, 4, 0, 0, 0, 0, 0, 0, 0, 0, 0, 0, 0\n0, 0]"] ;
17 -> 21 ;
22 [label="gini = 0.0\nsamples = 3\nvalue = [0, 0, 3, 0, 0, 0, 0, 0, 0, 0, 0, 0, 0, 0, 0\n0, 0]"] ;
16 -> 22 ;
23 [label="X[104] <= 12.833\ngini = 0.31\nsamples = 67\nvalue = [0, 0, 55, 8, 0, 1, 3, 0, 0, 0, 0, 0, 0, 0\n0, 0, 0]"] ;
15 -> 23 ;
24 [label="X[65] <= 13.0\ngini = 0.256\nsamples = 63\nvalue = [0, 0, 54, 5, 0, 1, 3, 0, 0, 0, 0, 0, 0, 0\n0, 0, 0]"] ;
23 -> 24 ;
25 [label="X[25] <= 48.0\ngini = 0.234\nsamples = 62\nvalue = [0, 0, 54, 5, 0, 1, 2, 0, 0, 0, 0, 0, 0, 0\n0, 0, 0]"] ;
24 -> 25 ;
26 [label="X[114] <= 1.75\ngini = 0.211\nsamples = 61\nvalue = [0, 0, 54, 4, 0, 1, 2, 0, 0, 0, 0, 0, 0, 0\n0, 0, 0]"] ;
25 -> 26 ;
27 [label="X[65] <= 7.5\ngini = 0.186\nsamples = 60\nvalue = [0, 0, 54, 3, 0, 1, 2, 0, 0, 0, 0, 0, 0, 0\n0, 0, 0]"] ;
26 -> 27 ;
28 [label="X[0] <= 0.5\ngini = 0.138\nsamples = 55\nvalue = [0, 0, 51, 1, 0, 1, 2, 0, 0, 0, 0, 0, 0, 0\n0, 0, 0]"] ;
27 -> 28 ;
29 [label="X[54] <= 130.5\ngini = 0.079\nsamples = 49\nvalue = [0, 0, 47, 1, 0, 1, 0, 0, 0, 0, 0, 0, 0, 0\n0, 0, 0]"] ;
28 -> 29 ;
30 [label="X[100] <= 8.833\ngini = 0.042\nsamples = 47\nvalue = [0, 0, 46, 1, 0, 0, 0, 0, 0, 0, 0, 0, 0, 0\n0, 0, 0]"] ;
29 -> 30 ;
31 [label="gini = 0.0\nsamples = 42\nvalue = [0, 0, 42, 0, 0, 0, 0, 0, 0, 0, 0, 0, 0, 0\n0, 0, 0]"] ;
30 -> 31 ;
32 [label="X[33] <= 9.5\ngini = 0.32\nsamples = 5\nvalue = [0, 0, 4, 1, 0, 0, 0, 0, 0, 0, 0, 0, 0, 0, 0\n0, 0]"] ;
30 -> 32 ;
33 [label="gini = 0.0\nsamples = 1\nvalue = [0, 0, 0, 1, 0, 0, 0, 0, 0, 0, 0, 0, 0, 0, 0\n0, 0]"] ;
32 -> 33 ;
34 [label="gini = 0.0\nsamples = 4\nvalue = [0, 0, 4, 0, 0, 0, 0, 0, 0, 0, 0, 0, 0, 0, 0\n0, 0]"] ;
32 -> 34 ;
35 [label="X[75] <= 3.5\ngini = 0.5\nsamples = 2\nvalue = [0, 0, 1, 0, 0, 1, 0, 0, 0, 0, 0, 0, 0, 0, 0\n0, 0]"] ;
29 -> 35 ;
36 [label="gini = 0.0\nsamples = 1\nvalue = [0, 0, 0, 0, 0, 1, 0, 0, 0, 0, 0, 0, 0, 0, 0\n0, 0]"] ;
35 -> 36 ;
37 [label="gini = 0.0\nsamples = 1\nvalue = [0, 0, 1, 0, 0, 0, 0, 0, 0, 0, 0, 0, 0, 0, 0\n0, 0]"] ;
35 -> 37 ;
38 [label="X[60] <= 4.5\ngini = 0.444\nsamples = 6\nvalue = [0, 0, 4, 0, 0, 0, 2, 0, 0, 0, 0, 0, 0, 0, 0\n0, 0]"] ;
28 -> 38 ;
39 [label="gini = 0.0\nsamples = 2\nvalue = [0, 0, 0, 0, 0, 0, 2, 0, 0, 0, 0, 0, 0, 0, 0\n0, 0]"] ;
38 -> 39 ;
40 [label="gini = 0.0\nsamples = 4\nvalue = [0, 0, 4, 0, 0, 0, 0, 0, 0, 0, 0, 0, 0, 0, 0\n0, 0]"] ;
38 -> 40 ;
41 [label="X[55] <= 0.5\ngini = 0.48\nsamples = 5\nvalue = [0, 0, 3, 2, 0, 0, 0, 0, 0, 0, 0, 0, 0, 0, 0\n0, 0]"] ;
27 -> 41 ;
42 [label="gini = 0.0\nsamples = 3\nvalue = [0, 0, 3, 0, 0, 0, 0, 0, 0, 0, 0, 0, 0, 0, 0\n0, 0]"] ;
41 -> 42 ;
43 [label="gini = 0.0\nsamples = 2\nvalue = [0, 0, 0, 2, 0, 0, 0, 0, 0, 0, 0, 0, 0, 0, 0\n0, 0]"] ;
41 -> 43 ;
44 [label="gini = 0.0\nsamples = 1\nvalue = [0, 0, 0, 1, 0, 0, 0, 0, 0, 0, 0, 0, 0, 0, 0\n0, 0]"] ;
26 -> 44 ;
45 [label="gini = 0.0\nsamples = 1\nvalue = [0, 0, 0, 1, 0, 0, 0, 0, 0, 0, 0, 0, 0, 0, 0\n0, 0]"] ;
25 -> 45 ;
46 [label="gini = 0.0\nsamples = 1\nvalue = [0, 0, 0, 0, 0, 0, 1, 0, 0, 0, 0, 0, 0, 0, 0\n0, 0]"] ;
24 -> 46 ;
47 [label="X[10] <= 9.15\ngini = 0.375\nsamples = 4\nvalue = [0, 0, 1, 3, 0, 0, 0, 0, 0, 0, 0, 0, 0, 0, 0\n0, 0]"] ;
23 -> 47 ;
48 [label="gini = 0.0\nsamples = 3\nvalue = [0, 0, 0, 3, 0, 0, 0, 0, 0, 0, 0, 0, 0, 0, 0\n0, 0]"] ;
47 -> 48 ;
49 [label="gini = 0.0\nsamples = 1\nvalue = [0, 0, 1, 0, 0, 0, 0, 0, 0, 0, 0, 0, 0, 0, 0\n0, 0]"] ;
47 -> 49 ;
50 [label="X[43] <= 4.5\ngini = 0.5\nsamples = 2\nvalue = [0, 0, 0, 1, 0, 0, 0, 0, 1, 0, 0, 0, 0, 0, 0\n0, 0]"] ;
14 -> 50 ;
51 [label="gini = 0.0\nsamples = 1\nvalue = [0, 0, 0, 0, 0, 0, 0, 0, 1, 0, 0, 0, 0, 0, 0\n0, 0]"] ;
50 -> 51 ;
52 [label="gini = 0.0\nsamples = 1\nvalue = [0, 0, 0, 1, 0, 0, 0, 0, 0, 0, 0, 0, 0, 0, 0\n0, 0]"] ;
50 -> 52 ;
53 [label="gini = 0.0\nsamples = 2\nvalue = [0, 0, 0, 2, 0, 0, 0, 0, 0, 0, 0, 0, 0, 0, 0\n0, 0]"] ;
13 -> 53 ;
54 [label="X[26] <= 0.5\ngini = 0.656\nsamples = 8\nvalue = [0, 0, 2, 4, 0, 0, 1, 0, 0, 0, 0, 0, 0, 1, 0\n0, 0]"] ;
12 -> 54 ;
55 [label="X[83] <= 0.167\ngini = 0.5\nsamples = 6\nvalue = [0, 0, 0, 4, 0, 0, 1, 0, 0, 0, 0, 0, 0, 1, 0\n0, 0]"] ;
54 -> 55 ;
56 [label="gini = 0.0\nsamples = 4\nvalue = [0, 0, 0, 4, 0, 0, 0, 0, 0, 0, 0, 0, 0, 0, 0\n0, 0]"] ;
55 -> 56 ;
57 [label="X[85] <= 14.333\ngini = 0.5\nsamples = 2\nvalue = [0, 0, 0, 0, 0, 0, 1, 0, 0, 0, 0, 0, 0, 1, 0\n0, 0]"] ;
55 -> 57 ;
58 [label="gini = 0.0\nsamples = 1\nvalue = [0, 0, 0, 0, 0, 0, 0, 0, 0, 0, 0, 0, 0, 1, 0\n0, 0]"] ;
57 -> 58 ;
59 [label="gini = 0.0\nsamples = 1\nvalue = [0, 0, 0, 0, 0, 0, 1, 0, 0, 0, 0, 0, 0, 0, 0\n0, 0]"] ;
57 -> 59 ;
60 [label="gini = 0.0\nsamples = 2\nvalue = [0, 0, 2, 0, 0, 0, 0, 0, 0, 0, 0, 0, 0, 0, 0\n0, 0]"] ;
54 -> 60 ;
61 [label="X[104] <= 10.5\ngini = 0.625\nsamples = 4\nvalue = [1, 0, 0, 2, 1, 0, 0, 0, 0, 0, 0, 0, 0, 0, 0\n0, 0]"] ;
11 -> 61 ;
62 [label="X[94] <= 0.333\ngini = 0.5\nsamples = 2\nvalue = [1, 0, 0, 0, 1, 0, 0, 0, 0, 0, 0, 0, 0, 0, 0\n0, 0]"] ;
61 -> 62 ;
63 [label="gini = 0.0\nsamples = 1\nvalue = [0, 0, 0, 0, 1, 0, 0, 0, 0, 0, 0, 0, 0, 0, 0\n0, 0]"] ;
62 -> 63 ;
64 [label="gini = 0.0\nsamples = 1\nvalue = [1, 0, 0, 0, 0, 0, 0, 0, 0, 0, 0, 0, 0, 0, 0\n0, 0]"] ;
62 -> 64 ;
65 [label="gini = 0.0\nsamples = 2\nvalue = [0, 0, 0, 2, 0, 0, 0, 0, 0, 0, 0, 0, 0, 0, 0\n0, 0]"] ;
61 -> 65 ;
66 [label="X[26] <= 0.5\ngini = 0.829\nsamples = 276\nvalue = [0, 1, 55, 60, 71, 21, 3, 8, 26, 8, 9, 6, 2, 3\n1, 1, 1]"] ;
0 -> 66 [labeldistance=2.5, labelangle=-45, headlabel="False"] ;
67 [label="X[27] <= 12.5\ngini = 0.824\nsamples = 242\nvalue = [0, 1, 33, 58, 68, 19, 3, 7, 25, 8, 9, 4, 1, 3\n1, 1, 1]"] ;
66 -> 67 ;
68 [label="X[22] <= 2.1\ngini = 0.864\nsamples = 143\nvalue = [0, 1, 19, 25, 27, 18, 2, 5, 25, 7, 5, 3, 1, 2\n1, 1, 1]"] ;
67 -> 68 ;
69 [label="X[60] <= 3.5\ngini = 0.656\nsamples = 40\nvalue = [0, 1, 12, 18, 9, 0, 0, 0, 0, 0, 0, 0, 0, 0\n0, 0, 0]"] ;
68 -> 69 ;
70 [label="X[22] <= 1.6\ngini = 0.529\nsamples = 11\nvalue = [0, 0, 2, 2, 7, 0, 0, 0, 0, 0, 0, 0, 0, 0, 0\n0, 0]"] ;
69 -> 70 ;
71 [label="X[4] <= 50.0\ngini = 0.667\nsamples = 6\nvalue = [0, 0, 2, 2, 2, 0, 0, 0, 0, 0, 0, 0, 0, 0, 0\n0, 0]"] ;
70 -> 71 ;
72 [label="gini = 0.0\nsamples = 2\nvalue = [0, 0, 0, 0, 2, 0, 0, 0, 0, 0, 0, 0, 0, 0, 0\n0, 0]"] ;
71 -> 72 ;
73 [label="X[8] <= -0.5\ngini = 0.5\nsamples = 4\nvalue = [0, 0, 2, 2, 0, 0, 0, 0, 0, 0, 0, 0, 0, 0, 0\n0, 0]"] ;
71 -> 73 ;
74 [label="gini = 0.0\nsamples = 2\nvalue = [0, 0, 2, 0, 0, 0, 0, 0, 0, 0, 0, 0, 0, 0, 0\n0, 0]"] ;
73 -> 74 ;
75 [label="gini = 0.0\nsamples = 2\nvalue = [0, 0, 0, 2, 0, 0, 0, 0, 0, 0, 0, 0, 0, 0, 0\n0, 0]"] ;
73 -> 75 ;
76 [label="gini = 0.0\nsamples = 5\nvalue = [0, 0, 0, 0, 5, 0, 0, 0, 0, 0, 0, 0, 0, 0, 0\n0, 0]"] ;
70 -> 76 ;
77 [label="X[33] <= 9.5\ngini = 0.571\nsamples = 29\nvalue = [0, 1, 10, 16, 2, 0, 0, 0, 0, 0, 0, 0, 0, 0\n0, 0, 0]"] ;
69 -> 77 ;
78 [label="X[102] <= 0.167\ngini = 0.581\nsamples = 17\nvalue = [0, 0, 9, 6, 2, 0, 0, 0, 0, 0, 0, 0, 0, 0, 0\n0, 0]"] ;
77 -> 78 ;
79 [label="X[29] <= 8.5\ngini = 0.473\nsamples = 13\nvalue = [0, 0, 9, 2, 2, 0, 0, 0, 0, 0, 0, 0, 0, 0, 0\n0, 0]"] ;
78 -> 79 ;
80 [label="X[17] <= 14.5\ngini = 0.18\nsamples = 10\nvalue = [0, 0, 9, 1, 0, 0, 0, 0, 0, 0, 0, 0, 0, 0, 0\n0, 0]"] ;
79 -> 80 ;
81 [label="X[22] <= 1.25\ngini = 0.5\nsamples = 2\nvalue = [0, 0, 1, 1, 0, 0, 0, 0, 0, 0, 0, 0, 0, 0, 0\n0, 0]"] ;
80 -> 81 ;
82 [label="gini = 0.0\nsamples = 1\nvalue = [0, 0, 0, 1, 0, 0, 0, 0, 0, 0, 0, 0, 0, 0, 0\n0, 0]"] ;
81 -> 82 ;
83 [label="gini = 0.0\nsamples = 1\nvalue = [0, 0, 1, 0, 0, 0, 0, 0, 0, 0, 0, 0, 0, 0, 0\n0, 0]"] ;
81 -> 83 ;
84 [label="gini = 0.0\nsamples = 8\nvalue = [0, 0, 8, 0, 0, 0, 0, 0, 0, 0, 0, 0, 0, 0, 0\n0, 0]"] ;
80 -> 84 ;
85 [label="X[114] <= 0.833\ngini = 0.444\nsamples = 3\nvalue = [0, 0, 0, 1, 2, 0, 0, 0, 0, 0, 0, 0, 0, 0, 0\n0, 0]"] ;
79 -> 85 ;
86 [label="gini = 0.0\nsamples = 1\nvalue = [0, 0, 0, 1, 0, 0, 0, 0, 0, 0, 0, 0, 0, 0, 0\n0, 0]"] ;
85 -> 86 ;
87 [label="gini = 0.0\nsamples = 2\nvalue = [0, 0, 0, 0, 2, 0, 0, 0, 0, 0, 0, 0, 0, 0, 0\n0, 0]"] ;
85 -> 87 ;
88 [label="gini = 0.0\nsamples = 4\nvalue = [0, 0, 0, 4, 0, 0, 0, 0, 0, 0, 0, 0, 0, 0, 0\n0, 0]"] ;
78 -> 88 ;
89 [label="X[120] <= 0.667\ngini = 0.292\nsamples = 12\nvalue = [0, 1, 1, 10, 0, 0, 0, 0, 0, 0, 0, 0, 0, 0\n0, 0, 0]"] ;
77 -> 89 ;
90 [label="gini = 0.0\nsamples = 1\nvalue = [0, 0, 1, 0, 0, 0, 0, 0, 0, 0, 0, 0, 0, 0, 0\n0, 0]"] ;
89 -> 90 ;
91 [label="X[54] <= 123.5\ngini = 0.165\nsamples = 11\nvalue = [0, 1, 0, 10, 0, 0, 0, 0, 0, 0, 0, 0, 0, 0\n0, 0, 0]"] ;
89 -> 91 ;
92 [label="gini = 0.0\nsamples = 10\nvalue = [0, 0, 0, 10, 0, 0, 0, 0, 0, 0, 0, 0, 0, 0\n0, 0, 0]"] ;
91 -> 92 ;
93 [label="gini = 0.0\nsamples = 1\nvalue = [0, 1, 0, 0, 0, 0, 0, 0, 0, 0, 0, 0, 0, 0, 0\n0, 0]"] ;
91 -> 93 ;
94 [label="X[13] <= 2.5\ngini = 0.859\nsamples = 103\nvalue = [0, 0, 7, 7, 18, 18, 2, 5, 25, 7, 5, 3, 1, 2\n1, 1, 1]"] ;
68 -> 94 ;
95 [label="X[17] <= 168.1\ngini = 0.769\nsamples = 46\nvalue = [0, 0, 4, 4, 1, 1, 1, 4, 20, 4, 4, 2, 0, 0\n1, 0, 0]"] ;
94 -> 95 ;
96 [label="X[60] <= 9.0\ngini = 0.697\nsamples = 37\nvalue = [0, 0, 3, 3, 0, 1, 1, 1, 19, 4, 4, 1, 0, 0\n0, 0, 0]"] ;
95 -> 96 ;
97 [label="X[88] <= 35.833\ngini = 0.394\nsamples = 17\nvalue = [0, 0, 0, 0, 0, 1, 0, 0, 13, 1, 2, 0, 0, 0\n0, 0, 0]"] ;
96 -> 97 ;
98 [label="X[1] <= 3.5\ngini = 0.24\nsamples = 15\nvalue = [0, 0, 0, 0, 0, 0, 0, 0, 13, 1, 1, 0, 0, 0\n0, 0, 0]"] ;
97 -> 98 ;
99 [label="X[99] <= 1.167\ngini = 0.133\nsamples = 14\nvalue = [0, 0, 0, 0, 0, 0, 0, 0, 13, 1, 0, 0, 0, 0\n0, 0, 0]"] ;
98 -> 99 ;
100 [label="gini = 0.0\nsamples = 13\nvalue = [0, 0, 0, 0, 0, 0, 0, 0, 13, 0, 0, 0, 0, 0\n0, 0, 0]"] ;
99 -> 100 ;
101 [label="gini = 0.0\nsamples = 1\nvalue = [0, 0, 0, 0, 0, 0, 0, 0, 0, 1, 0, 0, 0, 0, 0\n0, 0]"] ;
99 -> 101 ;
102 [label="gini = 0.0\nsamples = 1\nvalue = [0, 0, 0, 0, 0, 0, 0, 0, 0, 0, 1, 0, 0, 0, 0\n0, 0]"] ;
98 -> 102 ;
103 [label="X[122] <= 0.167\ngini = 0.5\nsamples = 2\nvalue = [0, 0, 0, 0, 0, 1, 0, 0, 0, 0, 1, 0, 0, 0, 0\n0, 0]"] ;
97 -> 103 ;
104 [label="gini = 0.0\nsamples = 1\nvalue = [0, 0, 0, 0, 0, 1, 0, 0, 0, 0, 0, 0, 0, 0, 0\n0, 0]"] ;
103 -> 104 ;
105 [label="gini = 0.0\nsamples = 1\nvalue = [0, 0, 0, 0, 0, 0, 0, 0, 0, 0, 1, 0, 0, 0, 0\n0, 0]"] ;
103 -> 105 ;
106 [label="X[30] <= 2.9\ngini = 0.825\nsamples = 20\nvalue = [0, 0, 3, 3, 0, 0, 1, 1, 6, 3, 2, 1, 0, 0, 0\n0, 0]"] ;
96 -> 106 ;
107 [label="X[76] <= 5.5\ngini = 0.375\nsamples = 4\nvalue = [0, 0, 3, 0, 0, 0, 1, 0, 0, 0, 0, 0, 0, 0, 0\n0, 0]"] ;
106 -> 107 ;
108 [label="gini = 0.0\nsamples = 1\nvalue = [0, 0, 0, 0, 0, 0, 1, 0, 0, 0, 0, 0, 0, 0, 0\n0, 0]"] ;
107 -> 108 ;
109 [label="gini = 0.0\nsamples = 3\nvalue = [0, 0, 3, 0, 0, 0, 0, 0, 0, 0, 0, 0, 0, 0, 0\n0, 0]"] ;
107 -> 109 ;
110 [label="X[113] <= 1.833\ngini = 0.766\nsamples = 16\nvalue = [0, 0, 0, 3, 0, 0, 0, 1, 6, 3, 2, 1, 0, 0, 0\n0, 0]"] ;
106 -> 110 ;
111 [label="X[46] <= 0.5\ngini = 0.735\nsamples = 14\nvalue = [0, 0, 0, 1, 0, 0, 0, 1, 6, 3, 2, 1, 0, 0, 0\n0, 0]"] ;
110 -> 111 ;
112 [label="X[25] <= 1.5\ngini = 0.694\nsamples = 12\nvalue = [0, 0, 0, 1, 0, 0, 0, 1, 6, 1, 2, 1, 0, 0, 0\n0, 0]"] ;
111 -> 112 ;
113 [label="X[73] <= 1.0\ngini = 0.667\nsamples = 3\nvalue = [0, 0, 0, 0, 0, 0, 0, 0, 0, 1, 1, 1, 0, 0, 0\n0, 0]"] ;
112 -> 113 ;
114 [label="gini = 0.0\nsamples = 1\nvalue = [0, 0, 0, 0, 0, 0, 0, 0, 0, 1, 0, 0, 0, 0, 0\n0, 0]"] ;
113 -> 114 ;
115 [label="X[44] <= 2.0\ngini = 0.5\nsamples = 2\nvalue = [0, 0, 0, 0, 0, 0, 0, 0, 0, 0, 1, 1, 0, 0, 0\n0, 0]"] ;
113 -> 115 ;
116 [label="gini = 0.0\nsamples = 1\nvalue = [0, 0, 0, 0, 0, 0, 0, 0, 0, 0, 1, 0, 0, 0, 0\n0, 0]"] ;
115 -> 116 ;
117 [label="gini = 0.0\nsamples = 1\nvalue = [0, 0, 0, 0, 0, 0, 0, 0, 0, 0, 0, 1, 0, 0, 0\n0, 0]"] ;
115 -> 117 ;
118 [label="X[74] <= 45.5\ngini = 0.519\nsamples = 9\nvalue = [0, 0, 0, 1, 0, 0, 0, 1, 6, 0, 1, 0, 0, 0, 0\n0, 0]"] ;
112 -> 118 ;
119 [label="X[17] <= 72.4\ngini = 0.245\nsamples = 7\nvalue = [0, 0, 0, 0, 0, 0, 0, 1, 6, 0, 0, 0, 0, 0, 0\n0, 0]"] ;
118 -> 119 ;
120 [label="gini = 0.0\nsamples = 1\nvalue = [0, 0, 0, 0, 0, 0, 0, 1, 0, 0, 0, 0, 0, 0, 0\n0, 0]"] ;
119 -> 120 ;
121 [label="gini = 0.0\nsamples = 6\nvalue = [0, 0, 0, 0, 0, 0, 0, 0, 6, 0, 0, 0, 0, 0, 0\n0, 0]"] ;
119 -> 121 ;
122 [label="X[71] <= 0.5\ngini = 0.5\nsamples = 2\nvalue = [0, 0, 0, 1, 0, 0, 0, 0, 0, 0, 1, 0, 0, 0, 0\n0, 0]"] ;
118 -> 122 ;
123 [label="gini = 0.0\nsamples = 1\nvalue = [0, 0, 0, 0, 0, 0, 0, 0, 0, 0, 1, 0, 0, 0, 0\n0, 0]"] ;
122 -> 123 ;
124 [label="gini = 0.0\nsamples = 1\nvalue = [0, 0, 0, 1, 0, 0, 0, 0, 0, 0, 0, 0, 0, 0, 0\n0, 0]"] ;
122 -> 124 ;
125 [label="gini = 0.0\nsamples = 2\nvalue = [0, 0, 0, 0, 0, 0, 0, 0, 0, 2, 0, 0, 0, 0, 0\n0, 0]"] ;
111 -> 125 ;
126 [label="gini = 0.0\nsamples = 2\nvalue = [0, 0, 0, 2, 0, 0, 0, 0, 0, 0, 0, 0, 0, 0, 0\n0, 0]"] ;
110 -> 126 ;
127 [label="X[101] <= 26.0\ngini = 0.815\nsamples = 9\nvalue = [0, 0, 1, 1, 1, 0, 0, 3, 1, 0, 0, 1, 0, 0, 1\n0, 0]"] ;
95 -> 127 ;
128 [label="X[17] <= 173.8\ngini = 0.667\nsamples = 6\nvalue = [0, 0, 0, 1, 1, 0, 0, 3, 1, 0, 0, 0, 0, 0, 0\n0, 0]"] ;
127 -> 128 ;
129 [label="X[35] <= 0.5\ngini = 0.5\nsamples = 2\nvalue = [0, 0, 0, 1, 1, 0, 0, 0, 0, 0, 0, 0, 0, 0, 0\n0, 0]"] ;
128 -> 129 ;
130 [label="gini = 0.0\nsamples = 1\nvalue = [0, 0, 0, 1, 0, 0, 0, 0, 0, 0, 0, 0, 0, 0, 0\n0, 0]"] ;
129 -> 130 ;
131 [label="gini = 0.0\nsamples = 1\nvalue = [0, 0, 0, 0, 1, 0, 0, 0, 0, 0, 0, 0, 0, 0, 0\n0, 0]"] ;
129 -> 131 ;
132 [label="X[2] <= 101.0\ngini = 0.375\nsamples = 4\nvalue = [0, 0, 0, 0, 0, 0, 0, 3, 1, 0, 0, 0, 0, 0, 0\n0, 0]"] ;
128 -> 132 ;
133 [label="gini = 0.0\nsamples = 1\nvalue = [0, 0, 0, 0, 0, 0, 0, 0, 1, 0, 0, 0, 0, 0, 0\n0, 0]"] ;
132 -> 133 ;
134 [label="gini = 0.0\nsamples = 3\nvalue = [0, 0, 0, 0, 0, 0, 0, 3, 0, 0, 0, 0, 0, 0, 0\n0, 0]"] ;
132 -> 134 ;
135 [label="X[30] <= 5.1\ngini = 0.667\nsamples = 3\nvalue = [0, 0, 1, 0, 0, 0, 0, 0, 0, 0, 0, 1, 0, 0, 1\n0, 0]"] ;
127 -> 135 ;
136 [label="gini = 0.0\nsamples = 1\nvalue = [0, 0, 1, 0, 0, 0, 0, 0, 0, 0, 0, 0, 0, 0, 0\n0, 0]"] ;
135 -> 136 ;
137 [label="X[84] <= 0.667\ngini = 0.5\nsamples = 2\nvalue = [0, 0, 0, 0, 0, 0, 0, 0, 0, 0, 0, 1, 0, 0, 1\n0, 0]"] ;
135 -> 137 ;
138 [label="gini = 0.0\nsamples = 1\nvalue = [0, 0, 0, 0, 0, 0, 0, 0, 0, 0, 0, 1, 0, 0, 0\n0, 0]"] ;
137 -> 138 ;
139 [label="gini = 0.0\nsamples = 1\nvalue = [0, 0, 0, 0, 0, 0, 0, 0, 0, 0, 0, 0, 0, 0, 1\n0, 0]"] ;
137 -> 139 ;
140 [label="X[18] <= 469.0\ngini = 0.803\nsamples = 57\nvalue = [0, 0, 3, 3, 17, 17, 1, 1, 5, 3, 1, 1, 1, 2\n0, 1, 1]"] ;
94 -> 140 ;
141 [label="X[15] <= 2.5\ngini = 0.806\nsamples = 36\nvalue = [0, 0, 3, 2, 14, 4, 1, 1, 4, 1, 1, 1, 0, 2\n0, 1, 1]"] ;
140 -> 141 ;
142 [label="X[4] <= 87.5\ngini = 0.707\nsamples = 28\nvalue = [0, 0, 1, 2, 14, 4, 1, 1, 3, 0, 1, 1, 0, 0\n0, 0, 0]"] ;
141 -> 142 ;
143 [label="X[115] <= 0.5\ngini = 0.414\nsamples = 16\nvalue = [0, 0, 0, 1, 12, 2, 0, 0, 1, 0, 0, 0, 0, 0\n0, 0, 0]"] ;
142 -> 143 ;
144 [label="X[120] <= 4.5\ngini = 0.255\nsamples = 14\nvalue = [0, 0, 0, 0, 12, 1, 0, 0, 1, 0, 0, 0, 0, 0\n0, 0, 0]"] ;
143 -> 144 ;
145 [label="gini = 0.0\nsamples = 1\nvalue = [0, 0, 0, 0, 0, 1, 0, 0, 0, 0, 0, 0, 0, 0, 0\n0, 0]"] ;
144 -> 145 ;
146 [label="X[28] <= 29.0\ngini = 0.142\nsamples = 13\nvalue = [0, 0, 0, 0, 12, 0, 0, 0, 1, 0, 0, 0, 0, 0\n0, 0, 0]"] ;
144 -> 146 ;
147 [label="X[31] <= 1.0\ngini = 0.5\nsamples = 2\nvalue = [0, 0, 0, 0, 1, 0, 0, 0, 1, 0, 0, 0, 0, 0, 0\n0, 0]"] ;
146 -> 147 ;
148 [label="gini = 0.0\nsamples = 1\nvalue = [0, 0, 0, 0, 1, 0, 0, 0, 0, 0, 0, 0, 0, 0, 0\n0, 0]"] ;
147 -> 148 ;
149 [label="gini = 0.0\nsamples = 1\nvalue = [0, 0, 0, 0, 0, 0, 0, 0, 1, 0, 0, 0, 0, 0, 0\n0, 0]"] ;
147 -> 149 ;
150 [label="gini = 0.0\nsamples = 11\nvalue = [0, 0, 0, 0, 11, 0, 0, 0, 0, 0, 0, 0, 0, 0\n0, 0, 0]"] ;
146 -> 150 ;
151 [label="X[114] <= 0.833\ngini = 0.5\nsamples = 2\nvalue = [0, 0, 0, 1, 0, 1, 0, 0, 0, 0, 0, 0, 0, 0, 0\n0, 0]"] ;
143 -> 151 ;
152 [label="gini = 0.0\nsamples = 1\nvalue = [0, 0, 0, 1, 0, 0, 0, 0, 0, 0, 0, 0, 0, 0, 0\n0, 0]"] ;
151 -> 152 ;
153 [label="gini = 0.0\nsamples = 1\nvalue = [0, 0, 0, 0, 0, 1, 0, 0, 0, 0, 0, 0, 0, 0, 0\n0, 0]"] ;
151 -> 153 ;
154 [label="X[25] <= 16.5\ngini = 0.875\nsamples = 12\nvalue = [0, 0, 1, 1, 2, 2, 1, 1, 2, 0, 1, 1, 0, 0, 0\n0, 0]"] ;
142 -> 154 ;
155 [label="X[17] <= 51.3\ngini = 0.86\nsamples = 10\nvalue = [0, 0, 1, 1, 0, 2, 1, 1, 2, 0, 1, 1, 0, 0, 0\n0, 0]"] ;
154 -> 155 ;
156 [label="X[65] <= 10.0\ngini = 0.444\nsamples = 3\nvalue = [0, 0, 0, 0, 0, 2, 0, 1, 0, 0, 0, 0, 0, 0, 0\n0, 0]"] ;
155 -> 156 ;
157 [label="gini = 0.0\nsamples = 2\nvalue = [0, 0, 0, 0, 0, 2, 0, 0, 0, 0, 0, 0, 0, 0, 0\n0, 0]"] ;
156 -> 157 ;
158 [label="gini = 0.0\nsamples = 1\nvalue = [0, 0, 0, 0, 0, 0, 0, 1, 0, 0, 0, 0, 0, 0, 0\n0, 0]"] ;
156 -> 158 ;
159 [label="X[120] <= 6.833\ngini = 0.816\nsamples = 7\nvalue = [0, 0, 1, 1, 0, 0, 1, 0, 2, 0, 1, 1, 0, 0, 0\n0, 0]"] ;
155 -> 159 ;
160 [label="gini = 0.0\nsamples = 2\nvalue = [0, 0, 0, 0, 0, 0, 0, 0, 2, 0, 0, 0, 0, 0, 0\n0, 0]"] ;
159 -> 160 ;
161 [label="X[90] <= 0.667\ngini = 0.8\nsamples = 5\nvalue = [0, 0, 1, 1, 0, 0, 1, 0, 0, 0, 1, 1, 0, 0, 0\n0, 0]"] ;
159 -> 161 ;
162 [label="X[88] <= 0.333\ngini = 0.667\nsamples = 3\nvalue = [0, 0, 0, 1, 0, 0, 1, 0, 0, 0, 0, 1, 0, 0, 0\n0, 0]"] ;
161 -> 162 ;
163 [label="X[120] <= 11.0\ngini = 0.5\nsamples = 2\nvalue = [0, 0, 0, 1, 0, 0, 1, 0, 0, 0, 0, 0, 0, 0, 0\n0, 0]"] ;
162 -> 163 ;
164 [label="gini = 0.0\nsamples = 1\nvalue = [0, 0, 0, 1, 0, 0, 0, 0, 0, 0, 0, 0, 0, 0, 0\n0, 0]"] ;
163 -> 164 ;
165 [label="gini = 0.0\nsamples = 1\nvalue = [0, 0, 0, 0, 0, 0, 1, 0, 0, 0, 0, 0, 0, 0, 0\n0, 0]"] ;
163 -> 165 ;
166 [label="gini = 0.0\nsamples = 1\nvalue = [0, 0, 0, 0, 0, 0, 0, 0, 0, 0, 0, 1, 0, 0, 0\n0, 0]"] ;
162 -> 166 ;
167 [label="X[7] <= 0.5\ngini = 0.5\nsamples = 2\nvalue = [0, 0, 1, 0, 0, 0, 0, 0, 0, 0, 1, 0, 0, 0, 0\n0, 0]"] ;
161 -> 167 ;
168 [label="gini = 0.0\nsamples = 1\nvalue = [0, 0, 0, 0, 0, 0, 0, 0, 0, 0, 1, 0, 0, 0, 0\n0, 0]"] ;
167 -> 168 ;
169 [label="gini = 0.0\nsamples = 1\nvalue = [0, 0, 1, 0, 0, 0, 0, 0, 0, 0, 0, 0, 0, 0, 0\n0, 0]"] ;
167 -> 169 ;
170 [label="gini = 0.0\nsamples = 2\nvalue = [0, 0, 0, 0, 2, 0, 0, 0, 0, 0, 0, 0, 0, 0, 0\n0, 0]"] ;
154 -> 170 ;
171 [label="X[88] <= 11.333\ngini = 0.812\nsamples = 8\nvalue = [0, 0, 2, 0, 0, 0, 0, 0, 1, 1, 0, 0, 0, 2, 0\n1, 1]"] ;
141 -> 171 ;
172 [label="X[33] <= 8.0\ngini = 0.778\nsamples = 6\nvalue = [0, 0, 0, 0, 0, 0, 0, 0, 1, 1, 0, 0, 0, 2, 0\n1, 1]"] ;
171 -> 172 ;
173 [label="X[18] <= 266.0\ngini = 0.75\nsamples = 4\nvalue = [0, 0, 0, 0, 0, 0, 0, 0, 1, 1, 0, 0, 0, 0, 0\n1, 1]"] ;
172 -> 173 ;
174 [label="gini = 0.0\nsamples = 1\nvalue = [0, 0, 0, 0, 0, 0, 0, 0, 0, 0, 0, 0, 0, 0, 0\n1, 0]"] ;
173 -> 174 ;
175 [label="X[0] <= 1.0\ngini = 0.667\nsamples = 3\nvalue = [0, 0, 0, 0, 0, 0, 0, 0, 1, 1, 0, 0, 0, 0, 0\n0, 1]"] ;
173 -> 175 ;
176 [label="gini = 0.0\nsamples = 1\nvalue = [0, 0, 0, 0, 0, 0, 0, 0, 1, 0, 0, 0, 0, 0, 0\n0, 0]"] ;
175 -> 176 ;
177 [label="X[98] <= 35.833\ngini = 0.5\nsamples = 2\nvalue = [0, 0, 0, 0, 0, 0, 0, 0, 0, 1, 0, 0, 0, 0, 0\n0, 1]"] ;
175 -> 177 ;
178 [label="gini = 0.0\nsamples = 1\nvalue = [0, 0, 0, 0, 0, 0, 0, 0, 0, 1, 0, 0, 0, 0, 0\n0, 0]"] ;
177 -> 178 ;
179 [label="gini = 0.0\nsamples = 1\nvalue = [0, 0, 0, 0, 0, 0, 0, 0, 0, 0, 0, 0, 0, 0, 0\n0, 1]"] ;
177 -> 179 ;
180 [label="gini = 0.0\nsamples = 2\nvalue = [0, 0, 0, 0, 0, 0, 0, 0, 0, 0, 0, 0, 0, 2, 0\n0, 0]"] ;
172 -> 180 ;
181 [label="gini = 0.0\nsamples = 2\nvalue = [0, 0, 2, 0, 0, 0, 0, 0, 0, 0, 0, 0, 0, 0, 0\n0, 0]"] ;
171 -> 181 ;
182 [label="X[13] <= 3.5\ngini = 0.58\nsamples = 21\nvalue = [0, 0, 0, 1, 3, 13, 0, 0, 1, 2, 0, 0, 1, 0\n0, 0, 0]"] ;
140 -> 182 ;
183 [label="X[25] <= 8.0\ngini = 0.444\nsamples = 18\nvalue = [0, 0, 0, 0, 3, 13, 0, 0, 1, 0, 0, 0, 1, 0\n0, 0, 0]"] ;
182 -> 183 ;
184 [label="X[94] <= 0.667\ngini = 0.444\nsamples = 3\nvalue = [0, 0, 0, 0, 2, 0, 0, 0, 1, 0, 0, 0, 0, 0, 0\n0, 0]"] ;
183 -> 184 ;
185 [label="gini = 0.0\nsamples = 2\nvalue = [0, 0, 0, 0, 2, 0, 0, 0, 0, 0, 0, 0, 0, 0, 0\n0, 0]"] ;
184 -> 185 ;
186 [label="gini = 0.0\nsamples = 1\nvalue = [0, 0, 0, 0, 0, 0, 0, 0, 1, 0, 0, 0, 0, 0, 0\n0, 0]"] ;
184 -> 186 ;
187 [label="X[5] <= 1.5\ngini = 0.24\nsamples = 15\nvalue = [0, 0, 0, 0, 1, 13, 0, 0, 0, 0, 0, 0, 1, 0\n0, 0, 0]"] ;
183 -> 187 ;
188 [label="gini = 0.0\nsamples = 1\nvalue = [0, 0, 0, 0, 1, 0, 0, 0, 0, 0, 0, 0, 0, 0, 0\n0, 0]"] ;
187 -> 188 ;
189 [label="X[1] <= 6.5\ngini = 0.133\nsamples = 14\nvalue = [0, 0, 0, 0, 0, 13, 0, 0, 0, 0, 0, 0, 1, 0\n0, 0, 0]"] ;
187 -> 189 ;
190 [label="gini = 0.0\nsamples = 13\nvalue = [0, 0, 0, 0, 0, 13, 0, 0, 0, 0, 0, 0, 0, 0\n0, 0, 0]"] ;
189 -> 190 ;
191 [label="gini = 0.0\nsamples = 1\nvalue = [0, 0, 0, 0, 0, 0, 0, 0, 0, 0, 0, 0, 1, 0, 0\n0, 0]"] ;
189 -> 191 ;
192 [label="X[97] <= 32.5\ngini = 0.444\nsamples = 3\nvalue = [0, 0, 0, 1, 0, 0, 0, 0, 0, 2, 0, 0, 0, 0, 0\n0, 0]"] ;
182 -> 192 ;
193 [label="gini = 0.0\nsamples = 2\nvalue = [0, 0, 0, 0, 0, 0, 0, 0, 0, 2, 0, 0, 0, 0, 0\n0, 0]"] ;
192 -> 193 ;
194 [label="gini = 0.0\nsamples = 1\nvalue = [0, 0, 0, 1, 0, 0, 0, 0, 0, 0, 0, 0, 0, 0, 0\n0, 0]"] ;
192 -> 194 ;
195 [label="X[27] <= 15.5\ngini = 0.695\nsamples = 99\nvalue = [0, 0, 14, 33, 41, 1, 1, 2, 0, 1, 4, 1, 0, 1\n0, 0, 0]"] ;
67 -> 195 ;
196 [label="X[22] <= 1.55\ngini = 0.498\nsamples = 37\nvalue = [0, 0, 5, 6, 25, 1, 0, 0, 0, 0, 0, 0, 0, 0\n0, 0, 0]"] ;
195 -> 196 ;
197 [label="gini = 0.0\nsamples = 3\nvalue = [0, 0, 0, 3, 0, 0, 0, 0, 0, 0, 0, 0, 0, 0, 0\n0, 0]"] ;
196 -> 197 ;
198 [label="X[17] <= 132.5\ngini = 0.429\nsamples = 34\nvalue = [0, 0, 5, 3, 25, 1, 0, 0, 0, 0, 0, 0, 0, 0\n0, 0, 0]"] ;
196 -> 198 ;
199 [label="X[82] <= 0.167\ngini = 0.295\nsamples = 29\nvalue = [0, 0, 4, 1, 24, 0, 0, 0, 0, 0, 0, 0, 0, 0\n0, 0, 0]"] ;
198 -> 199 ;
200 [label="X[28] <= 18.0\ngini = 0.198\nsamples = 27\nvalue = [0, 0, 3, 0, 24, 0, 0, 0, 0, 0, 0, 0, 0, 0\n0, 0, 0]"] ;
199 -> 200 ;
201 [label="X[113] <= 0.167\ngini = 0.49\nsamples = 7\nvalue = [0, 0, 3, 0, 4, 0, 0, 0, 0, 0, 0, 0, 0, 0, 0\n0, 0]"] ;
200 -> 201 ;
202 [label="gini = 0.0\nsamples = 3\nvalue = [0, 0, 3, 0, 0, 0, 0, 0, 0, 0, 0, 0, 0, 0, 0\n0, 0]"] ;
201 -> 202 ;
203 [label="gini = 0.0\nsamples = 4\nvalue = [0, 0, 0, 0, 4, 0, 0, 0, 0, 0, 0, 0, 0, 0, 0\n0, 0]"] ;
201 -> 203 ;
204 [label="gini = 0.0\nsamples = 20\nvalue = [0, 0, 0, 0, 20, 0, 0, 0, 0, 0, 0, 0, 0, 0\n0, 0, 0]"] ;
200 -> 204 ;
205 [label="X[87] <= 1.333\ngini = 0.5\nsamples = 2\nvalue = [0, 0, 1, 1, 0, 0, 0, 0, 0, 0, 0, 0, 0, 0, 0\n0, 0]"] ;
199 -> 205 ;
206 [label="gini = 0.0\nsamples = 1\nvalue = [0, 0, 0, 1, 0, 0, 0, 0, 0, 0, 0, 0, 0, 0, 0\n0, 0]"] ;
205 -> 206 ;
207 [label="gini = 0.0\nsamples = 1\nvalue = [0, 0, 1, 0, 0, 0, 0, 0, 0, 0, 0, 0, 0, 0, 0\n0, 0]"] ;
205 -> 207 ;
208 [label="X[120] <= 13.833\ngini = 0.72\nsamples = 5\nvalue = [0, 0, 1, 2, 1, 1, 0, 0, 0, 0, 0, 0, 0, 0, 0\n0, 0]"] ;
198 -> 208 ;
209 [label="gini = 0.0\nsamples = 2\nvalue = [0, 0, 0, 2, 0, 0, 0, 0, 0, 0, 0, 0, 0, 0, 0\n0, 0]"] ;
208 -> 209 ;
210 [label="X[113] <= 0.5\ngini = 0.667\nsamples = 3\nvalue = [0, 0, 1, 0, 1, 1, 0, 0, 0, 0, 0, 0, 0, 0, 0\n0, 0]"] ;
208 -> 210 ;
211 [label="X[53] <= 1.5\ngini = 0.5\nsamples = 2\nvalue = [0, 0, 1, 0, 0, 1, 0, 0, 0, 0, 0, 0, 0, 0, 0\n0, 0]"] ;
210 -> 211 ;
212 [label="gini = 0.0\nsamples = 1\nvalue = [0, 0, 1, 0, 0, 0, 0, 0, 0, 0, 0, 0, 0, 0, 0\n0, 0]"] ;
211 -> 212 ;
213 [label="gini = 0.0\nsamples = 1\nvalue = [0, 0, 0, 0, 0, 1, 0, 0, 0, 0, 0, 0, 0, 0, 0\n0, 0]"] ;
211 -> 213 ;
214 [label="gini = 0.0\nsamples = 1\nvalue = [0, 0, 0, 0, 1, 0, 0, 0, 0, 0, 0, 0, 0, 0, 0\n0, 0]"] ;
210 -> 214 ;
215 [label="X[3] <= 50.0\ngini = 0.716\nsamples = 62\nvalue = [0, 0, 9, 27, 16, 0, 1, 2, 0, 1, 4, 1, 0, 1\n0, 0, 0]"] ;
195 -> 215 ;
216 [label="X[28] <= 40.5\ngini = 0.611\nsamples = 32\nvalue = [0, 0, 1, 19, 5, 0, 1, 2, 0, 1, 2, 0, 0, 1\n0, 0, 0]"] ;
215 -> 216 ;
217 [label="X[25] <= 3.0\ngini = 0.277\nsamples = 19\nvalue = [0, 0, 1, 16, 2, 0, 0, 0, 0, 0, 0, 0, 0, 0\n0, 0, 0]"] ;
216 -> 217 ;
218 [label="X[99] <= 0.167\ngini = 0.64\nsamples = 5\nvalue = [0, 0, 1, 2, 2, 0, 0, 0, 0, 0, 0, 0, 0, 0, 0\n0, 0]"] ;
217 -> 218 ;
219 [label="X[86] <= 0.333\ngini = 0.444\nsamples = 3\nvalue = [0, 0, 1, 0, 2, 0, 0, 0, 0, 0, 0, 0, 0, 0, 0\n0, 0]"] ;
218 -> 219 ;
220 [label="gini = 0.0\nsamples = 1\nvalue = [0, 0, 1, 0, 0, 0, 0, 0, 0, 0, 0, 0, 0, 0, 0\n0, 0]"] ;
219 -> 220 ;
221 [label="gini = 0.0\nsamples = 2\nvalue = [0, 0, 0, 0, 2, 0, 0, 0, 0, 0, 0, 0, 0, 0, 0\n0, 0]"] ;
219 -> 221 ;
222 [label="gini = 0.0\nsamples = 2\nvalue = [0, 0, 0, 2, 0, 0, 0, 0, 0, 0, 0, 0, 0, 0, 0\n0, 0]"] ;
218 -> 222 ;
223 [label="gini = 0.0\nsamples = 14\nvalue = [0, 0, 0, 14, 0, 0, 0, 0, 0, 0, 0, 0, 0, 0\n0, 0, 0]"] ;
217 -> 223 ;
224 [label="X[2] <= 109.5\ngini = 0.828\nsamples = 13\nvalue = [0, 0, 0, 3, 3, 0, 1, 2, 0, 1, 2, 0, 0, 1, 0\n0, 0]"] ;
216 -> 224 ;
225 [label="X[22] <= 2.55\ngini = 0.8\nsamples = 10\nvalue = [0, 0, 0, 0, 3, 0, 1, 2, 0, 1, 2, 0, 0, 1, 0\n0, 0]"] ;
224 -> 225 ;
226 [label="gini = 0.0\nsamples = 3\nvalue = [0, 0, 0, 0, 3, 0, 0, 0, 0, 0, 0, 0, 0, 0, 0\n0, 0]"] ;
225 -> 226 ;
227 [label="X[104] <= 11.0\ngini = 0.776\nsamples = 7\nvalue = [0, 0, 0, 0, 0, 0, 1, 2, 0, 1, 2, 0, 0, 1, 0\n0, 0]"] ;
225 -> 227 ;
228 [label="gini = 0.0\nsamples = 2\nvalue = [0, 0, 0, 0, 0, 0, 0, 2, 0, 0, 0, 0, 0, 0, 0\n0, 0]"] ;
227 -> 228 ;
229 [label="X[85] <= 16.667\ngini = 0.72\nsamples = 5\nvalue = [0, 0, 0, 0, 0, 0, 1, 0, 0, 1, 2, 0, 0, 1, 0\n0, 0]"] ;
227 -> 229 ;
230 [label="X[2] <= 86.0\ngini = 0.667\nsamples = 3\nvalue = [0, 0, 0, 0, 0, 0, 1, 0, 0, 1, 0, 0, 0, 1, 0\n0, 0]"] ;
229 -> 230 ;
231 [label="gini = 0.0\nsamples = 1\nvalue = [0, 0, 0, 0, 0, 0, 1, 0, 0, 0, 0, 0, 0, 0, 0\n0, 0]"] ;
230 -> 231 ;
232 [label="X[8] <= 0.5\ngini = 0.5\nsamples = 2\nvalue = [0, 0, 0, 0, 0, 0, 0, 0, 0, 1, 0, 0, 0, 1, 0\n0, 0]"] ;
230 -> 232 ;
233 [label="gini = 0.0\nsamples = 1\nvalue = [0, 0, 0, 0, 0, 0, 0, 0, 0, 0, 0, 0, 0, 1, 0\n0, 0]"] ;
232 -> 233 ;
234 [label="gini = 0.0\nsamples = 1\nvalue = [0, 0, 0, 0, 0, 0, 0, 0, 0, 1, 0, 0, 0, 0, 0\n0, 0]"] ;
232 -> 234 ;
235 [label="gini = 0.0\nsamples = 2\nvalue = [0, 0, 0, 0, 0, 0, 0, 0, 0, 0, 2, 0, 0, 0, 0\n0, 0]"] ;
229 -> 235 ;
236 [label="gini = 0.0\nsamples = 3\nvalue = [0, 0, 0, 3, 0, 0, 0, 0, 0, 0, 0, 0, 0, 0, 0\n0, 0]"] ;
224 -> 236 ;
237 [label="X[33] <= 9.0\ngini = 0.718\nsamples = 30\nvalue = [0, 0, 8, 8, 11, 0, 0, 0, 0, 0, 2, 1, 0, 0\n0, 0, 0]"] ;
215 -> 237 ;
238 [label="X[28] <= 81.5\ngini = 0.37\nsamples = 9\nvalue = [0, 0, 0, 1, 7, 0, 0, 0, 0, 0, 1, 0, 0, 0, 0\n0, 0]"] ;
237 -> 238 ;
239 [label="gini = 0.0\nsamples = 7\nvalue = [0, 0, 0, 0, 7, 0, 0, 0, 0, 0, 0, 0, 0, 0, 0\n0, 0]"] ;
238 -> 239 ;
240 [label="X[85] <= 7.5\ngini = 0.5\nsamples = 2\nvalue = [0, 0, 0, 1, 0, 0, 0, 0, 0, 0, 1, 0, 0, 0, 0\n0, 0]"] ;
238 -> 240 ;
241 [label="gini = 0.0\nsamples = 1\nvalue = [0, 0, 0, 1, 0, 0, 0, 0, 0, 0, 0, 0, 0, 0, 0\n0, 0]"] ;
240 -> 241 ;
242 [label="gini = 0.0\nsamples = 1\nvalue = [0, 0, 0, 0, 0, 0, 0, 0, 0, 0, 1, 0, 0, 0, 0\n0, 0]"] ;
240 -> 242 ;
243 [label="X[31] <= 0.5\ngini = 0.703\nsamples = 21\nvalue = [0, 0, 8, 7, 4, 0, 0, 0, 0, 0, 1, 1, 0, 0, 0\n0, 0]"] ;
237 -> 243 ;
244 [label="X[22] <= 2.35\ngini = 0.698\nsamples = 13\nvalue = [0, 0, 2, 6, 3, 0, 0, 0, 0, 0, 1, 1, 0, 0, 0\n0, 0]"] ;
243 -> 244 ;
245 [label="X[109] <= 1.167\ngini = 0.375\nsamples = 4\nvalue = [0, 0, 1, 0, 3, 0, 0, 0, 0, 0, 0, 0, 0, 0, 0\n0, 0]"] ;
244 -> 245 ;
246 [label="gini = 0.0\nsamples = 3\nvalue = [0, 0, 0, 0, 3, 0, 0, 0, 0, 0, 0, 0, 0, 0, 0\n0, 0]"] ;
245 -> 246 ;
247 [label="gini = 0.0\nsamples = 1\nvalue = [0, 0, 1, 0, 0, 0, 0, 0, 0, 0, 0, 0, 0, 0, 0\n0, 0]"] ;
245 -> 247 ;
248 [label="X[4] <= 87.5\ngini = 0.519\nsamples = 9\nvalue = [0, 0, 1, 6, 0, 0, 0, 0, 0, 0, 1, 1, 0, 0, 0\n0, 0]"] ;
244 -> 248 ;
249 [label="X[50] <= 1.5\ngini = 0.5\nsamples = 2\nvalue = [0, 0, 1, 0, 0, 0, 0, 0, 0, 0, 0, 1, 0, 0, 0\n0, 0]"] ;
248 -> 249 ;
250 [label="gini = 0.0\nsamples = 1\nvalue = [0, 0, 0, 0, 0, 0, 0, 0, 0, 0, 0, 1, 0, 0, 0\n0, 0]"] ;
249 -> 250 ;
251 [label="gini = 0.0\nsamples = 1\nvalue = [0, 0, 1, 0, 0, 0, 0, 0, 0, 0, 0, 0, 0, 0, 0\n0, 0]"] ;
249 -> 251 ;
252 [label="X[33] <= 11.0\ngini = 0.245\nsamples = 7\nvalue = [0, 0, 0, 6, 0, 0, 0, 0, 0, 0, 1, 0, 0, 0, 0\n0, 0]"] ;
248 -> 252 ;
253 [label="gini = 0.0\nsamples = 1\nvalue = [0, 0, 0, 0, 0, 0, 0, 0, 0, 0, 1, 0, 0, 0, 0\n0, 0]"] ;
252 -> 253 ;
254 [label="gini = 0.0\nsamples = 6\nvalue = [0, 0, 0, 6, 0, 0, 0, 0, 0, 0, 0, 0, 0, 0, 0\n0, 0]"] ;
252 -> 254 ;
255 [label="X[28] <= 81.0\ngini = 0.406\nsamples = 8\nvalue = [0, 0, 6, 1, 1, 0, 0, 0, 0, 0, 0, 0, 0, 0, 0\n0, 0]"] ;
243 -> 255 ;
256 [label="X[14] <= 8.5\ngini = 0.245\nsamples = 7\nvalue = [0, 0, 6, 0, 1, 0, 0, 0, 0, 0, 0, 0, 0, 0, 0\n0, 0]"] ;
255 -> 256 ;
257 [label="gini = 0.0\nsamples = 6\nvalue = [0, 0, 6, 0, 0, 0, 0, 0, 0, 0, 0, 0, 0, 0, 0\n0, 0]"] ;
256 -> 257 ;
258 [label="gini = 0.0\nsamples = 1\nvalue = [0, 0, 0, 0, 1, 0, 0, 0, 0, 0, 0, 0, 0, 0, 0\n0, 0]"] ;
256 -> 258 ;
259 [label="gini = 0.0\nsamples = 1\nvalue = [0, 0, 0, 1, 0, 0, 0, 0, 0, 0, 0, 0, 0, 0, 0\n0, 0]"] ;
255 -> 259 ;
260 [label="X[50] <= 0.5\ngini = 0.561\nsamples = 34\nvalue = [0, 0, 22, 2, 3, 2, 0, 1, 1, 0, 0, 2, 1, 0\n0, 0, 0]"] ;
66 -> 260 ;
261 [label="X[10] <= 165.95\ngini = 0.299\nsamples = 24\nvalue = [0, 0, 20, 1, 1, 0, 0, 1, 0, 0, 0, 0, 1, 0\n0, 0, 0]"] ;
260 -> 261 ;
262 [label="X[29] <= 36.0\ngini = 0.169\nsamples = 22\nvalue = [0, 0, 20, 0, 1, 0, 0, 1, 0, 0, 0, 0, 0, 0\n0, 0, 0]"] ;
261 -> 262 ;
263 [label="X[4] <= 87.5\ngini = 0.091\nsamples = 21\nvalue = [0, 0, 20, 0, 1, 0, 0, 0, 0, 0, 0, 0, 0, 0\n0, 0, 0]"] ;
262 -> 263 ;
264 [label="gini = 0.0\nsamples = 19\nvalue = [0, 0, 19, 0, 0, 0, 0, 0, 0, 0, 0, 0, 0, 0\n0, 0, 0]"] ;
263 -> 264 ;
265 [label="X[29] <= 12.5\ngini = 0.5\nsamples = 2\nvalue = [0, 0, 1, 0, 1, 0, 0, 0, 0, 0, 0, 0, 0, 0, 0\n0, 0]"] ;
263 -> 265 ;
266 [label="gini = 0.0\nsamples = 1\nvalue = [0, 0, 0, 0, 1, 0, 0, 0, 0, 0, 0, 0, 0, 0, 0\n0, 0]"] ;
265 -> 266 ;
267 [label="gini = 0.0\nsamples = 1\nvalue = [0, 0, 1, 0, 0, 0, 0, 0, 0, 0, 0, 0, 0, 0, 0\n0, 0]"] ;
265 -> 267 ;
268 [label="gini = 0.0\nsamples = 1\nvalue = [0, 0, 0, 0, 0, 0, 0, 1, 0, 0, 0, 0, 0, 0, 0\n0, 0]"] ;
262 -> 268 ;
269 [label="X[17] <= 172.6\ngini = 0.5\nsamples = 2\nvalue = [0, 0, 0, 1, 0, 0, 0, 0, 0, 0, 0, 0, 1, 0, 0\n0, 0]"] ;
261 -> 269 ;
270 [label="gini = 0.0\nsamples = 1\nvalue = [0, 0, 0, 1, 0, 0, 0, 0, 0, 0, 0, 0, 0, 0, 0\n0, 0]"] ;
269 -> 270 ;
271 [label="gini = 0.0\nsamples = 1\nvalue = [0, 0, 0, 0, 0, 0, 0, 0, 0, 0, 0, 0, 1, 0, 0\n0, 0]"] ;
269 -> 271 ;
272 [label="X[7] <= -0.5\ngini = 0.82\nsamples = 10\nvalue = [0, 0, 2, 1, 2, 2, 0, 0, 1, 0, 0, 2, 0, 0, 0\n0, 0]"] ;
260 -> 272 ;
273 [label="gini = 0.0\nsamples = 2\nvalue = [0, 0, 0, 0, 0, 0, 0, 0, 0, 0, 0, 2, 0, 0, 0\n0, 0]"] ;
272 -> 273 ;
274 [label="X[56] <= 1.5\ngini = 0.781\nsamples = 8\nvalue = [0, 0, 2, 1, 2, 2, 0, 0, 1, 0, 0, 0, 0, 0, 0\n0, 0]"] ;
272 -> 274 ;
275 [label="gini = 0.0\nsamples = 2\nvalue = [0, 0, 2, 0, 0, 0, 0, 0, 0, 0, 0, 0, 0, 0, 0\n0, 0]"] ;
274 -> 275 ;
276 [label="X[104] <= 12.0\ngini = 0.722\nsamples = 6\nvalue = [0, 0, 0, 1, 2, 2, 0, 0, 1, 0, 0, 0, 0, 0, 0\n0, 0]"] ;
274 -> 276 ;
277 [label="X[53] <= 46.5\ngini = 0.625\nsamples = 4\nvalue = [0, 0, 0, 1, 2, 0, 0, 0, 1, 0, 0, 0, 0, 0, 0\n0, 0]"] ;
276 -> 277 ;
278 [label="gini = 0.0\nsamples = 2\nvalue = [0, 0, 0, 0, 2, 0, 0, 0, 0, 0, 0, 0, 0, 0, 0\n0, 0]"] ;
277 -> 278 ;
279 [label="X[43] <= 2.0\ngini = 0.5\nsamples = 2\nvalue = [0, 0, 0, 1, 0, 0, 0, 0, 1, 0, 0, 0, 0, 0, 0\n0, 0]"] ;
277 -> 279 ;
280 [label="gini = 0.0\nsamples = 1\nvalue = [0, 0, 0, 1, 0, 0, 0, 0, 0, 0, 0, 0, 0, 0, 0\n0, 0]"] ;
279 -> 280 ;
281 [label="gini = 0.0\nsamples = 1\nvalue = [0, 0, 0, 0, 0, 0, 0, 0, 1, 0, 0, 0, 0, 0, 0\n0, 0]"] ;
279 -> 281 ;
282 [label="gini = 0.0\nsamples = 2\nvalue = [0, 0, 0, 0, 0, 2, 0, 0, 0, 0, 0, 0, 0, 0, 0\n0, 0]"] ;
276 -> 282 ;
}